tree
version=v2
num_class=1
num_tree_per_iteration=1
label_index=0
max_feature_idx=31
objective=regression
feature_names=BU_pvdistsignif2_Cjp mu_1_pt PI2_eta psi_pt BU_pt_Cjp K1_pt BU_vtxprob_Cjp mu_2_eta phi_eta phi_pt BU_pvdistsignif3_Cjp nB mu_2_pt JP_pt JPSI_pvcos2_Cmumu K2_eta JPSI_vtxprob_Cmumu K2_pt JP_eta JPSI_pvdistsignif2_Cmumu JPSI_mass_Cmumu PI2_pt psi_eta BU_eta_Cjp PHI_mass_Cjp mu_1_eta K1_eta BU_pvcos2_Cjp PI1_pt PI1_eta PV_bestBang_RF_CL PIPI_mass_Cjp
feature_infos=[5.0000838023217682:447.65653405274566] [4.0003552350356992:95.123933661915856] [-2.4955404139504593:2.4617279551259554] [9.4567461039413985:163.76199971891606] [15.000199607983703:207.62118093575668] [0.70126947118543181:30.000929442132808] [0.10000781714916229:0.99999648332595825] [-2.1280882396882017:2.1281171188530754] [-2.4009935028365383:2.397024174205725] [1.3505714389641388:50.713179798705696] [5.0319446925183353:542.91105654012642] [1:518] [4.0003260425053293:66.959653577879877] [7.7651230267652549:120.66292558968686] [0.97912508416975286:0.9999999956646165] [-2.4893073171411895:2.4271609954788373] [0.10006941854953766:0.99999189376831055] [0.70004844125138377:24.548233125743913] [-2.0976887006645701:2.1438369436471914] [3.0202976943390256:350.94771465139189] [3.0400195121765137:3.1499671936035156] [0.60000680691633412:19.0824424571599] [-2.110260797343241:2.1369339272346117] [-2.1722168769284438:2.1389544074606861] [0.98735533445535262:1.1089893920418799] [-2.1147010196700777:2.1099128882096987] [-2.3882175621297956:2.439405431482804] [0.99900000790559174:0.99999999875661816] [0.60393356758843941:23.783177530436756] [-2.3771072627783152:2.439405431482804] [0.011412962339818478:1] [0.27983838873656131:1.179632375717363]
tree_sizes=2421 2481 2487 2486 2487 2485 2484 2496 2500 2485 2491 2482 2506 2512 2507 2505 2496 2517 2517 2503 2529 2501 2514 2527 2519 2523 2517 2532 2516 2537 2523 2516 2528 2515 2533 2535 2536 2519 2544 2530 2534 2537 2520 2533 2534 2525 2512 2540 2538 2527 2537 2526 2536 2532 2536 2531 2528 2526 2540 2523 2534 2541 2528 2540 2540 2541 2539 2535 2530 2544 2545 2538 2564 2540 2540 2534 2543 2556 2570 2541 2545 2533 2545 2531 2547 2547 2548 2545 2530 2547 2529 2544 2542 2561 2551 2545 2547 2544 2539 2548 2555 2552 2540 2575 2572 2542 2551 2539 2547 2536 2567 2546 2558 2568 2549 2537 2550 2548 2511 2552 2555 2540 2534 2548 2534 2537 2533 2530 2542 2570 2535 2536 2553 2536 2549 2527 2518 2521 2550 2558 2549 2556 2542 2533 2540 2546 2571 2536 2548 2502 2555 2550 2514 2532 2552 2534 2524 2522 2538 2540 2569 2507 2516 2543 2542 2518 2548 2549 2528 2516 2507 2530 2518 2538 2517 2502 2547 2505 2548 2525 2524 2492 2517 2510 2526 2517 2510 2513 2529 2532 2512 2531 2558 2513 2540 2530 2533 2532 2526 2514 2517 2524 2499 2503 2510 2512 2517 2549 2523 2532 2512 2513 2512 2533 2523 2505 2518 2517 2500 2548 2528 2508 2533 2505 2520 2515 2512 2523 2518 2510 2490 2523 2513 2516 2513 2542 2505 2507 2509 2539 2532 2504 2524 2537 2506 2523 2494 2526 2534 2517

Tree=0
num_leaves=30
num_cat=0
split_feature=11 31 17 9 31 24 24 24 24 24 24 31 31 31 24 24 11 31 31 9 31 9 31 5 11 31 9 28 0
split_gain=2860.19 2053.31 589.641 278.179 276.827 217.888 278.005 182.655 154.652 136.328 129.682 81.1183 68.927 82.8615 84.273 151.314 58.7783 52.3455 47.4581 35.5993 34.126 34.015 21.1289 17.04 16.6045 16.1856 15.9646 16.6407 15.8398
threshold=3.5000000000000004 0.59117827457093475 1.2536188529787597 3.5274778603738484 0.58889586126142823 1.0277232580645137 1.0124382041438638 1.0304749323992597 1.0262481824210343 1.0056234882930239 1.011797990729377 0.40757927125879295 0.59117827457093475 0.44777379465386985 1.0277232580645137 1.0121551768138539 9.5000000000000018 0.398599978390409 0.35756265761764955 5.3023267323595027 0.41631936374209849 2.4122268767434698 0.43392557501065487 4.2410895271869427 17.500000000000004 0.46815687742496254 3.9047073285246521 3.7542560147116046 18.425417380401722
decision_type=2 2 2 2 2 2 2 2 2 2 2 2 2 2 2 2 2 2 2 2 2 2 2 2 2 2 2 2 2
left_child=1 2 5 12 8 6 -1 9 10 23 -5 -8 13 -2 15 -15 21 -9 -11 28 -12 -17 -7 -4 -22 -13 27 -20 -19
right_child=3 -3 7 4 -6 22 11 17 -10 18 20 25 -14 14 -16 16 -18 19 26 -21 24 -23 -24 -25 -26 -27 -28 -29 -30
leaf_value=0.48294956140350875 0.47749552085999486 0.47562700106723588 0.49075520833333336 0.48522988505747128 0.47538402457757295 0.47743243243243244 0.4919421487603306 0.48496309963099632 0.48515712682379347 0.50116279069767444 0.49895437262357417 0.50909523809523805 0.47504716981132078 0.47760089686098656 0.47797124600638979 0.49912060301507538 0.48953168044077133 0.49233128834355827 0.52061586638830892 0.51534216335540839 0.51996855345911952 0.51598497495826379 0.48966942148760328 0.51331775700934579 0.50117187500000004 0.51880871050384292 0.52352628260698242 0.50767148014440433 0.50696721311475412
leaf_count=912 3907 3748 384 435 1302 555 363 271 891 258 263 525 4240 1115 1565 597 726 326 2395 906 1431 599 968 107 128 2342 12689 277 427
internal_value=0 0.200324 0.30907 -0.319757 -0.104494 0.0276258 0.146548 0.39745 0.0559085 0.432278 0.195171 0.284211 -0.394894 -0.34299 -0.252064 -0.154923 0.0150884 0.106736 0.448588 0.173297 0.312294 0.151338 -0.295798 -0.086558 0.368505 0.3406 0.455732 0.385479 0.0126162
internal_count=44652 27453 23705 17199 4450 5665 4142 18040 3148 16110 2257 3230 12749 8509 4602 3037 1922 1930 15619 1659 1822 1196 1523 491 1559 2867 15361 2672 753
shrinkage=1


Tree=1
num_leaves=30
num_cat=0
split_feature=11 31 17 9 31 24 24 24 24 24 24 31 6 31 31 24 24 31 31 6 6 5 9 6 11 31 31 31 17
split_gain=2581.32 1853.11 532.151 251.056 249.836 196.644 250.899 164.846 139.573 124.638 117.038 73.7633 72.2806 67.2817 66.665 55.38 68.0724 47.7345 35.2915 30.9909 30.8715 28.4694 28.1611 20.1885 19.4552 17.5332 17.0331 14.236 14.106
threshold=3.5000000000000004 0.59117827457093475 1.2536188529787597 3.5274778603738484 0.58889586126142823 1.0277232580645137 1.0124382041438638 1.0304749323992597 1.0262481824210343 1.0093002636971542 1.011797990729377 0.39376431214241453 0.68868508934974682 0.59493289641350589 0.42261492987391469 1.0295953773731379 1.0121551768138539 0.42476837872717027 0.38141614243368099 0.36790788173675543 0.36033083498477941 2.3869650588674367 5.3023267323595027 0.68868508934974682 9.5000000000000018 0.39613655448816637 0.47665407248738217 0.45629512834754604 0.93956724899876842
decision_type=2 2 2 2 2 2 2 2 2 2 2 2 2 2 2 2 2 2 2 2 2 2 2 2 2 2 2 2 2
left_child=1 2 5 12 8 6 -1 9 10 21 -5 -8 -2 14 -14 16 -16 -9 -11 28 -12 -4 -19 -7 -18 -22 -25 -23 -13
right_child=3 -3 7 4 -6 23 11 17 -10 18 20 19 13 -15 15 -17 24 22 -20 -21 25 27 -24 26 -26 -27 -28 -29 -30
leaf_value=-0.016197916342501055 -0.021114485838167506 -0.023154349187776656 -0.0098741548696914365 -0.01403160922828762 -0.02338517674927338 -0.01791413851295199 -0.011025678707020625 -0.010682260924345488 -0.014100729783643642 0.0087766388520228011 0.0014866306909493039 -0.0014717215087421505 -0.019746335575339991 -0.023752358555793763 -0.017252951680895797 -0.018700744978327685 0.013752141632865754 0.0015688757954407829 0.021992761779382253 0.018603264724330285 0.00024913186867406051 -0.0053916986759116013 0.015131236355637265 -0.015309008609568865 -0.001509372929209157 0.019684416534289109 0.0036797938480669142 0.014390310602406718 0.013091398365795613
leaf_count=912 9159 3748 332 435 1302 1050 280 385 891 523 350 309 872 1001 332 414 667 699 14783 2281 127 123 846 228 304 1345 245 349 360
internal_value=0 0.190308 0.293616 -0.303769 -0.0992697 0.0262445 0.13922 0.377578 0.0531131 0.410664 0.185412 0.27 -0.375149 -0.254881 -0.169757 -0.055402 0.0458304 0.101399 0.430823 0.316557 0.296679 0.0268861 0.179905 -0.281008 0.179482 0.360152 -0.109467 0.184705 0.127299
internal_count=44652 27453 23705 17199 4450 5665 4142 18040 3148 16110 2257 3230 12749 3590 2589 1717 1303 1930 15306 2950 1822 804 1545 1523 971 1472 473 472 669
shrinkage=0.05


Tree=2
num_leaves=30
num_cat=0
split_feature=31 11 17 17 24 24 24 24 24 24 6 31 31 24 24 31 31 9 31 6 11 31 24 6 10 17 5 9 6
split_gain=2334.74 1882.07 480.266 295.962 177.471 226.576 148.774 118.342 131.893 112.995 77.7362 66.5514 63.1612 56.0741 85.6607 43.8063 40.0035 30.2177 29.7526 27.502 19.1072 18.2621 18.2547 17.1017 15.1962 14.6282 14.4291 14.2475 13.8981
threshold=0.59117827457093475 3.5000000000000004 1.2536188529787597 1.4930654778966728 1.0277232580645137 1.0134181227354915 1.0304749323992597 1.025834610527016 1.011797990729377 1.0056234882930239 0.58825978636741649 0.43674211359671761 0.38419040522242925 1.0252756385708073 1.0136224066415853 0.39119144174886394 0.35756265761764955 5.3537726421960308 0.41631936374209849 0.3488022387027741 17.500000000000004 0.43392557501065487 1.0097204009071004 0.58825978636741649 23.317134337009961 0.93956724899876842 4.2410895271869427 3.8038510622023867 0.41419787704944616
decision_type=2 2 2 2 2 2 2 2 2 2 2 2 2 2 2 2 2 2 2 2 2 2 2 2 2 2 2 2 2
left_child=1 2 4 10 5 22 9 8 -5 26 -3 -12 -7 14 -13 -8 -11 24 -10 -14 -20 -6 -1 -23 -17 -16 -4 28 -18
right_child=-2 3 6 7 21 12 15 -9 18 16 11 13 19 -15 25 17 27 -19 20 -21 -22 23 -24 -25 -26 -27 -28 -29 -30
leaf_value=-0.018053028908202318 -0.022327625271657409 -0.019406729183567711 -0.0086357214992555491 -0.014271100508120225 -0.020578686417760075 -0.012386630341878388 -0.014938531505818271 -0.01328154788552338 -0.0014873802095311675 0.0007239304771719053 -0.018573176312954891 -0.015832016258698449 0.0058453632421888316 -0.015923572552296542 0.0025023357602464895 -0.0071353852707013651 0.010895669278246246 0.013912442468304552 0.018356754338773807 0.017745489605668328 -0.00072948095492190784 -0.014743631436194305 -0.0029200647558484758 -0.0012318084049284909 0.006868326572810903 0.015833497050052388 0.01212647682595476 0.021238981744565594 0.019377218340138766
leaf_count=738 9276 5139 384 524 555 223 245 909 263 258 1243 447 616 645 323 356 663 904 1467 2292 144 571 273 397 425 567 107 12919 1779
internal_value=0 0.117091 0.278936 -0.211631 0.0249323 0.132259 0.358699 0.0416217 0.158091 0.390131 -0.311763 -0.190067 0.265162 -0.0763044 0.0405226 0.096329 0.40498 0.153777 0.282104 0.304494 0.333014 -0.266957 -0.279334 -0.184042 0.00970145 0.219907 -0.0822234 0.411539 0.34149
internal_count=44652 35376 23705 11671 5665 4142 18040 3307 2398 16110 8364 3225 3131 1982 1337 1930 15619 1685 1874 2908 1611 1523 1011 968 781 890 491 15361 2442
shrinkage=0.05


Tree=3
num_leaves=30
num_cat=0
split_feature=31 11 17 9 31 31 6 6 6 31 11 31 6 5 11 28 13 31 31 28 13 17 11 9 6 31 0 9 28
split_gain=2107.1 1698.57 433.459 268.236 162.748 111.289 98.9175 77.1079 66.7944 63.6793 58.3472 46.0567 33.7768 27.0318 24.8589 24.5976 24.8066 24.3264 22.8057 21.2663 29.8629 19.2939 18.8471 16.6183 15.375 14.5437 14.4635 14.1916 14.1392
threshold=0.59117827457093475 3.5000000000000004 1.2618011338242756 3.3397375736236512 0.44931335553095342 0.39119144174886394 0.44383092224597936 0.37198431789875036 0.60889905691146862 0.40757927125879295 9.5000000000000018 0.42261492987391469 0.27967984974384313 2.3664878760895269 17.500000000000004 2.9924975729287597 14.444961406114556 0.34261305022292704 0.39376431214241453 4.9636203459788169 20.517493004178771 1.058730870934061 9.5000000000000018 2.2418173604703635 0.45214796066284185 0.41844698173248557 10.803054624358335 2.4122268767434698 3.9874736049853272
decision_type=2 2 2 2 2 2 2 2 2 2 2 2 2 2 2 2 2 2 2 2 2 2 2 2 2 2 2 2 2
left_child=1 2 4 8 18 17 22 23 -3 -8 11 -10 13 -7 28 26 -17 -4 -1 -14 -21 -13 25 -6 -19 -5 -9 -20 -11
right_child=-2 3 5 6 7 12 9 15 10 14 -12 21 19 -15 -16 16 -18 24 27 20 -22 -23 -24 -25 -26 -27 -28 -29 -30
leaf_value=-0.017249711731265736 -0.021211244213286792 -0.018426623374568244 -0.011240052943237983 -0.016440466555333374 -0.0096849712099486267 0.0041218190533774245 -0.010713415974146361 0.0048526184741416283 -0.015624125938175063 0.015460285132652836 -0.016392311892273387 -0.0026539133985837302 0.019453760540288287 0.015780616137128192 -0.0042895165799949576 -0.021593078823372872 0.0069617448882623159 -0.003181047270314619 -0.010398999459872488 -0.02077570255188381 0.01396006910778376 0.010644328885415489 -0.017691782183328255 0.0023413907646690538 0.011578800965214402 -0.00077176923418904213 0.014949063140296651 0.003038875649007268 0.0014577156059371616
leaf_count=865 9276 5190 287 202 615 665 385 431 466 1444 1424 630 13548 1970 217 101 308 287 573 68 687 481 471 539 458 555 2004 299 206
internal_value=0 0.111237 0.264989 -0.201049 0.0256232 0.341381 0.0315363 0.136661 -0.299865 0.156034 -0.18111 -0.0486098 0.360806 0.256765 0.232395 0.225125 -0.00179382 0.0225627 -0.229948 0.379973 0.216631 0.0620694 -0.196777 -0.0813561 0.117856 -0.099057 0.263239 -0.115826 0.274242
internal_count=44652 35376 23705 11671 5735 17970 3480 3998 8191 2252 3001 1577 16938 2635 1867 2844 409 1032 1737 14303 755 1111 1228 1154 745 757 2435 872 1650
shrinkage=0.05


Tree=4
num_leaves=30
num_cat=0
split_feature=11 24 24 17 24 24 9 9 6 24 24 6 5 11 6 28 9 24 6 0 21 11 24 24 9 9 11 28 24
split_gain=1900.52 531.548 514.832 334.444 148.445 164.111 116.436 111.742 92.4712 74.6051 143.569 64.3473 55.5142 45.5824 35.9965 32.457 27.3076 25.8636 20.0656 19.9708 18.9536 17.3298 23.6947 43.7618 20.7012 16.8521 15.8672 15.3235 14.2734
threshold=2.5000000000000004 1.0290516704163475 1.0097204009071004 1.6953974718131635 1.0260452854150077 1.0134181227354915 4.7505528931843948 3.7496501771399671 0.61766505241394054 1.0252756385708073 1.0121551768138539 0.46054343879222875 2.3869650588674367 9.5000000000000018 0.36033083498477941 4.0825831645726174 2.1355875721447699 1.0533275176700609 0.7362998127937318 15.483754823679725 1.9624308251622768 7.5000000000000009 1.0264857009582322 1.0131818219306974 2.4274929070001705 2.4506590013002669 18.500000000000004 3.3236963440309162 1.0134181227354915
decision_type=2 2 2 2 2 2 2 2 2 2 2 2 2 2 2 2 2 2 2 2 2 2 2 2 2 2 2 2 2
left_child=1 2 12 8 5 -5 17 11 21 10 -10 16 -1 25 -7 -8 -4 18 -3 -18 28 22 23 -2 -25 -12 -16 -21 -13
right_child=3 6 7 4 -6 14 15 -9 9 -11 13 20 -14 -15 26 -17 19 -19 -20 27 -22 -23 -24 24 -26 -27 -28 -29 -30
leaf_value=-0.016292448935200557 -0.019452298465909602 -0.015826294009308128 -0.007419658475109444 -0.01252664662407417 -0.013407022142467868 0.00034455351983497757 0.0086869293614781871 0.018217331679471153 -0.018238240622618598 -0.017219682994502536 0.0023688351475971035 0.0026268659302821525 0.0017481866252697733 -0.0078326672338844272 0.016265061732805883 -0.0085480566259840858 -0.0020862428277730943 0.013593010876768381 -0.0062653215673585602 0.013495143260630841 0.001082910845677058 -0.019629482083798291 -0.019718185541860774 -0.01222724998862949 0.00032944514936099025 0.013400254470493457 -0.0030973814294806552 -0.002842429020766462 0.015409494803070549
leaf_count=1439 1118 2009 522 912 1449 511 1185 12280 1268 2028 646 234 606 641 1914 355 500 93 755 741 282 5715 1827 661 652 746 112 178 3273
internal_value=0 0.187514 0.256551 -0.226985 0.00044676 0.113286 -0.127367 0.310541 -0.299783 -0.193438 -0.100697 0.195229 -0.218928 0.0640051 0.244072 0.0942786 0.0471691 -0.246841 -0.264293 0.11911 0.271076 -0.356608 -0.308315 -0.243645 -0.119839 0.165616 0.303894 0.206615 0.291132
internal_count=44652 24452 20055 20200 4898 3449 4397 18010 15302 5329 3301 5730 2045 2033 2537 1540 1941 2857 2764 1419 3789 9973 4258 2431 1313 1392 2026 919 3507
shrinkage=0.05


Tree=5
num_leaves=30
num_cat=0
split_feature=31 11 9 9 24 24 24 24 24 24 31 11 6 24 24 6 31 31 31 31 31 28 6 6 10 24 27 11 31
split_gain=1793.92 1390.23 350.877 221.899 189.166 227.412 125.438 96.7928 91.9979 56.6317 52.3312 50.041 50.9383 48.6287 62.7685 38.5276 33.0122 27.7279 23.3247 22.1586 22.0676 21.3618 18.9966 17.9429 15.8965 15.701 13.4245 11.6725 10.9098
threshold=0.59117827457093475 3.5000000000000004 3.3397375736236512 3.2011841169240562 1.0267279667276581 1.0124382041438638 1.0288096736233958 1.011797990729377 1.0304749323992597 1.0045309922073018 0.38905097949857775 9.5000000000000018 0.45214796066284185 1.0279640498969271 1.0136224066415853 0.29454778134822851 0.42476837872717027 0.38663166161346679 0.39376431214241453 0.398599978390409 0.43392557501065487 4.0825831645726174 0.58825978636741649 0.35292749106884008 23.080451285365566 1.0050787492601108 0.99973062417136804 1.5000000000000002 0.4536567136829775
decision_type=2 2 2 2 2 2 2 2 2 2 2 2 2 2 2 2 2 2 2 2 2 2 2 2 2 2 2 2 2
left_child=1 2 4 11 5 25 7 -5 9 28 -7 12 -3 14 -14 -9 -10 -16 -17 27 -6 24 -22 26 -18 -1 -12 -11 -4
right_child=-2 3 8 6 20 10 -8 15 16 19 23 -13 13 -15 17 18 21 -19 -20 -21 22 -23 -24 -25 -26 -27 -28 -29 -30
leaf_value=-0.017784287834619925 -0.01957151668436212 -0.015860755368422307 -0.016374501296617452 -0.012687989182016824 -0.018273372395680502 -0.0070336036285422497 -0.014396592481519845 -0.0039378157924881306 -0.0088564345062668651 0.014168484923579999 -0.0038334426042195913 -0.017522897852313504 -0.014277909395493033 -0.015985618336598728 -0.013297104296775964 -0.0038453528073412431 0.0038095254697126249 0.011539316590790008 0.015625645559061208 0.018321394415864552 -0.01228997369134237 -0.0051325012440398589 0.00033287285162887431 0.016334526067318982 0.015819168487513389 -0.0059165322734403983 0.011456098392396561 0.0012951173024736483 0.003116053958985373
leaf_count=606 9276 1733 103 534 650 302 976 362 335 496 185 4155 461 611 130 169 439 829 1711 13664 693 236 523 3066 740 516 641 273 237
internal_value=0 0.102638 0.241736 -0.179886 0.0572011 0.153354 0.0204353 0.128853 0.321948 0.34763 0.260332 -0.274798 -0.191278 -0.0838194 0.017681 0.219983 0.105147 0.163451 0.277507 0.357133 -0.216726 0.171976 -0.137218 0.291448 0.226948 -0.246528 0.160634 0.191967 -0.0557688
internal_count=44652 35376 23705 11671 7182 5316 3752 2776 16523 14773 4194 7919 3764 2031 1420 2242 1750 959 1880 14433 1866 1415 1216 3892 1179 1122 826 769 340
shrinkage=0.05


Tree=6
num_leaves=30
num_cat=0
split_feature=31 11 17 9 31 24 24 24 24 24 24 31 6 24 24 31 31 24 24 31 9 5 6 31 28 0 11 24 24
split_gain=1619.01 1254.68 323.547 201.048 130.508 104.311 92.1847 81.8111 80.9384 88.2386 71.7527 57.9477 58.8895 43.3586 69.9585 32.7937 29.0404 25.0511 47.3325 23.4105 23.2279 19.8404 18.9964 15.169 13.3983 14.893 12.8775 12.8167 24.4478
threshold=0.59117827457093475 3.5000000000000004 1.2536188529787597 3.5274778603738484 0.46699070753569277 1.0304749323992597 1.0288096736233958 1.0093002636971542 1.0290516704163475 1.0114887728215745 1.011797990729377 0.45208460518193522 0.5682019591331483 1.0252756385708073 1.0121551768138539 0.39119144174886394 0.37293489483744163 1.025834610527016 1.0138242378148077 0.34261305022292704 5.3023267323595027 2.3869650588674367 0.29454778134822851 0.38141614243368099 3.3789743172367861 18.425417380401722 7.5000000000000009 1.0269646938556674 1.0131818219306974
decision_type=2 2 2 2 2 2 2 2 2 2 2 2 2 2 2 2 2 2 2 2 2 2 2 2 2 2 2 2 2
left_child=1 2 4 11 17 7 10 21 9 -6 -5 -3 26 14 -14 -7 -12 18 -1 -9 24 -4 -18 -20 25 -17 27 28 -13
right_child=-2 3 5 6 8 15 -8 19 -10 -11 16 12 13 -15 -16 20 22 -19 23 -21 -22 -23 -24 -25 -26 -27 -28 -29 -30
leaf_value=-0.016748384237289429 -0.018592940859975308 -0.016873524732882228 -0.0088398330048265229 -0.01116014355772477 -0.010307215694467136 -0.013321165266085644 -0.012852362531702965 -0.003037415934752112 -0.0081646237286325998 0.014169252291170381 -0.010440728461576834 -0.016937423315171007 -0.014508800782263279 -0.012954635149354389 0.010489147975081539 -0.0056533835045558473 0.0003553043288613839 -0.016078872114381779 -0.0095830188436402813 0.017080384600406274 0.011635360227466671 0.0071128268047409545 0.014984111043714707 0.0069702295472427291 -0.012354963846590329 0.010316245892696833 -0.016457381541189042 -0.016570854872465134 0.0040508009124080226
leaf_count=495 9276 4051 332 441 433 245 768 146 726 2461 144 233 400 628 932 257 259 781 181 15160 916 472 1550 588 174 338 1572 350 343
internal_value=0 0.0975057 0.229649 -0.170892 0.0211683 0.295118 0.044413 0.321437 0.135249 0.210142 0.141122 -0.2509 -0.172234 -0.0424811 0.0596451 0.075425 0.223389 -0.180773 -0.0937734 0.33777 0.12513 0.0105082 0.257793 0.0614816 -0.0030115 0.0683688 -0.274042 -0.180492 -0.0887845
internal_count=44652 35376 23705 11671 5665 18040 3162 16110 3620 2894 2394 8509 4458 1960 1332 1930 1953 2045 1264 15306 1685 804 1809 769 769 595 2498 926 576
shrinkage=0.05


Tree=7
num_leaves=30
num_cat=0
split_feature=31 11 17 17 24 31 24 24 24 24 24 11 24 24 31 31 31 31 28 24 24 10 11 6 31 6 24 24 9
split_gain=1461.16 1132.35 293.124 182.09 108.802 102.424 89.1924 74.6749 75.5793 62.9273 73.4017 52.671 46.4972 63.5358 34.4525 32.8602 29.3612 27.4547 19.9196 19.6188 36.7662 17.0506 16.827 16.0858 14.8086 19.248 17.8053 38.5768 14.0235
threshold=0.59117827457093475 3.5000000000000004 1.1640734601641753 1.5143164205175539 1.0304749323992597 0.46699070753569277 1.0050787492601108 1.0290516704163475 1.011797990729377 1.0298719196419495 1.0114887728215745 6.5000000000000009 1.0269646938556674 1.0134181227354915 0.38905097949857775 0.43220004072443907 0.42057589519877958 0.38663166161346679 4.0825831645726174 1.0260452854150077 1.0138242378148077 23.080451285365566 15.500000000000002 0.45214796066284185 0.45208460518193522 0.45620299875736242 1.0252756385708073 1.0163021308511506 5.939485878099295
decision_type=2 2 2 2 2 2 2 2 2 2 2 2 2 2 2 2 2 2 2 2 2 2 2 2 2 2 2 2 2
left_child=1 2 5 11 6 19 -4 8 -5 10 -7 12 13 -3 28 -6 -10 -15 21 20 -1 -17 -18 -19 -13 -26 27 -27 -8
right_child=-2 3 4 7 15 9 14 -9 16 -11 -12 24 -14 17 -16 18 22 23 -20 -21 -22 -23 -24 -25 25 26 -28 -29 -30
leaf_value=-0.016302188648117912 -0.017663294094108262 -0.014082995683185814 -0.0055081630337472064 -0.011157451675425345 -0.0087922359005320229 -0.011008474281610154 -0.0010517603027791441 -0.012369866373268425 -0.0031114402109991292 -0.0086987443365059893 0.012861521994403415 -0.017273160033265945 -0.014926109698103261 -0.013474506669980617 0.016223246060139418 0.0016441652317111682 0.014956968276175365 -0.00076820590928148691 -0.0065803507963816329 -0.015875389773092594 0.0021594611664937833 0.013249672879921457 -0.00067279429771961317 0.013005699842064469 -0.016458340572804899 -0.013545150353082484 -0.01537883762228355 0.0071320018818918267 0.013048285303577302
leaf_count=450 9276 645 510 509 466 381 409 705 334 616 2082 2866 1014 163 15517 517 1473 309 252 706 673 816 195 675 1343 482 534 424 310
internal_value=0 0.0926304 0.218167 -0.162347 0.274989 0.000547436 0.301614 0.0401822 0.120924 0.111887 0.183382 -0.239383 -0.127395 -0.0305626 0.314549 0.0575947 0.208404 0.110639 0.126227 -0.186886 -0.104767 0.17497 0.262595 0.173607 -0.29501 -0.243052 -0.162737 -0.0773685 0.100551
internal_count=44652 35376 23705 11671 18797 4908 16746 3216 2511 3079 2463 8455 2806 1792 16236 2051 2002 1147 1585 1829 1123 1333 1668 984 5649 2783 1440 906 719
shrinkage=0.05


Tree=8
num_leaves=30
num_cat=0
split_feature=31 11 17 9 24 24 24 24 24 24 31 6 24 24 31 31 6 28 31 31 17 10 6 6 6 24 31 31 17
split_gain=1318.69 1021.95 265.256 165.009 108.805 142.49 93.3803 84.8862 79.3188 69.516 39.5574 41.2154 37.3394 57.9661 36.4456 34.3437 23.1014 20.1578 18.2024 16.7573 16.2185 16.0179 15.0114 14.3296 12.8924 12.1182 11.6553 11.1542 10.8167
threshold=0.59117827457093475 3.5000000000000004 1.2618011338242756 3.2011841169240562 1.0267279667276581 1.0134181227354915 1.0254394361571197 1.0279640498969271 1.011797990729377 1.0093002636971542 0.44777379465386985 0.45620299875736242 1.0282589091350844 1.0121551768138539 0.40757927125879295 0.43220004072443907 0.29454778134822851 4.9636203459788169 0.48789252584495396 0.37570280333554501 1.6661997375655555 11.446410077142376 0.68868508934974682 0.3488022387027741 0.44383092224597936 1.0045309922073018 0.47665407248738217 0.37570280333554501 3.2620270636055264
decision_type=2 2 2 2 2 2 2 2 2 2 2 2 2 2 2 2 2 2 2 2 2 2 2 2 2 2 2 2 2
left_child=1 2 4 10 5 25 8 9 -5 18 -3 -12 13 -13 -7 -9 -10 20 -4 -11 -17 -15 -6 -16 -8 -1 -24 -18 -26
right_child=-2 3 7 6 22 14 24 15 16 19 11 12 -14 21 23 17 27 -19 -20 -21 -22 -23 26 -25 28 -27 -28 -29 -30
leaf_value=-0.016549396842289756 -0.016780129252399231 -0.015588856210887693 -0.0081529541025784896 -0.010876646992307478 -0.013144951319046411 -0.0050678390246283386 -0.016107178846090354 -0.0070973544531772216 -0.0018415637556221578 0.0055914741618415488 -0.01383165112537396 -0.013878699667042211 -0.013901783156215698 -0.0024611614425392712 0.0055208139763146587 0.00030787825355749307 -0.0039177689863287889 -0.0085674556764377945 0.0070334944268377435 0.015771199441246303 0.011867390155132407 0.010574190846333903 -0.010953131003721858 0.014429363495100551 -0.008652990771912214 -0.0056384746872909074 0.0041637366880541262 0.013974894403791953 0.0091170301715147156
leaf_count=487 9276 3688 352 534 1122 327 571 496 308 416 1954 504 665 340 569 391 92 174 449 14337 1355 768 237 2184 508 533 276 1636 103
internal_value=0 0.0879989 0.207259 -0.15423 0.0200094 0.10699 0.0185144 0.267018 0.125503 0.294106 -0.236076 -0.170089 -0.0786593 0.00358957 0.214272 0.0926297 0.215474 0.153229 0.00719598 0.309683 0.185575 0.131483 -0.198108 0.251762 -0.214109 -0.216958 -0.0564016 0.260446 -0.113148
internal_count=44652 35376 23705 11671 5735 4100 3752 17970 2570 15554 7919 4231 2277 1612 3080 2416 2036 1920 801 14753 1746 1108 1635 2753 1182 1020 513 1728 611
shrinkage=0.05


Tree=9
num_leaves=30
num_cat=0
split_feature=31 9 31 24 24 24 24 0 31 0 6 31 0 31 24 31 28 24 0 6 27 6 6 28 6 0 24 24 24
split_gain=1190.12 882.586 215.778 166.511 163.992 219.491 109.713 50.4322 48.0442 44.8389 33.6318 26.268 25.4436 22.3473 21.5233 20.5445 20.5429 18.971 17.49 20.4864 15.0204 14.9141 13.6425 13.4775 13.1326 11.932 11.6262 11.2655 18.3572
threshold=0.59117827457093475 3.3397375736236512 0.44777379465386985 1.0311066625221823 1.0290516704163475 1.0121551768138539 1.0093002636971542 14.154241057136284 0.36393613396830987 16.34091805590112 0.46054343879222875 0.38905097949857775 18.249905655417198 0.40757927125879295 1.0533275176700609 0.45208460518193522 4.1864329793011894 1.0533275176700609 13.131176051592094 0.32171544432640081 0.9998763784677378 0.60500684380531322 0.75483596324920665 3.2016056251538694 0.47260460257530218 24.857431294548849 1.0230884544993575 1.0101117746757104 1.024402747174731
decision_type=2 2 2 2 2 2 2 2 2 2 2 2 2 2 2 2 2 2 2 2 2 2 2 2 2 2 2 2 2
left_child=1 2 12 6 5 22 15 10 -8 17 -7 -11 -1 -14 -6 -3 -13 24 19 -10 23 25 -4 -9 -5 -17 -12 -15 -29
right_child=-2 3 4 9 14 7 8 20 18 11 26 16 13 27 -16 21 -18 -19 -20 -21 -22 -23 -24 -25 -26 -27 -28 28 -30
leaf_value=-0.014534267995676678 -0.01594112266614911 -0.012520138571659727 -0.01423455030714315 -0.015421931609969458 -0.012377851036661822 -0.0057827218318991652 -0.0028329646404189703 0.0089313352046516328 0.0035041070001393263 -0.013356577018661612 0.0096998649174266996 0.011015293184396023 -0.011802824816690288 -0.016034005801928673 0.018461807380462516 -0.011040830375944697 -0.0058481966477951838 0.019017213709273582 0.015119438054745117 0.013026059448719025 0.014379625530767834 0.010080702570469483 -0.003559742181096226 -0.010957361114652535 -0.0042223965917794516 0.007782210514415056 -0.0021200635226873254 0.010037455455000913 -0.0082491806676161707
leaf_count=4116 9276 360 1357 553 2304 782 423 824 703 169 1041 932 1059 95 58 246 224 59 12512 2875 2430 322 384 95 497 128 260 336 232
internal_value=0 0.083599 -0.0965751 0.222069 -0.00387162 0.0713843 0.256028 0.170417 0.276012 -0.0230554 0.0482406 0.101117 -0.247985 -0.145919 -0.232411 -0.0564618 0.154953 -0.171413 0.284758 0.223104 0.246408 0.0438524 -0.237602 0.137508 -0.202416 -0.0919744 0.146754 -0.00194436 0.0513653
internal_count=44652 35376 15373 20003 9535 7173 17569 5432 16513 2434 2083 1325 5838 1722 2362 1056 1156 1109 16090 3578 3349 696 1741 919 1050 374 1301 663 568
shrinkage=0.05


Tree=10
num_leaves=30
num_cat=0
split_feature=31 11 9 24 24 9 31 24 24 31 5 6 31 31 24 24 24 24 24 11 9 6 6 6 5 6 6 11 31
split_gain=1074.08 857.393 287.323 144.6 88.188 85.2474 72.1101 48.9927 63.6044 42.9328 38.7127 36.6617 32.7928 27.3225 20.0959 20.0016 30.0026 16.8866 16.6796 15.5583 14.5121 14.0766 13.5842 11.7902 11.1994 11.0306 10.7258 9.1132 13.0875
threshold=0.59117827457093475 4.5000000000000009 2.4649892395973385 1.0317823117108678 1.0060723140079932 4.4354775857427304 0.46699070753569277 1.0279640498969271 1.011797990729377 0.36393613396830987 2.814948244787554 0.68868508934974682 0.47423161910147493 0.41433826712937877 1.0320881387558687 1.0249286882723425 1.0114887728215745 1.0533275176700609 1.0093002636971542 1.5000000000000002 7.5810022503710277 0.27967984974384313 0.61312901973724376 0.57580661773681652 2.3664878760895269 0.23138557374477389 0.52479657530784618 13.500000000000002 0.44777379465386985
decision_type=2 2 2 2 2 2 2 2 2 2 2 2 2 2 2 2 2 2 2 2 2 2 2 2 2 2 2 2 2
left_child=1 2 6 4 20 11 22 8 -8 -6 17 27 -13 -7 18 16 -14 23 -15 -12 -4 24 -1 -5 -11 -10 -21 28 -3
right_child=-2 5 3 10 9 13 7 -9 25 21 19 12 15 14 -16 -17 -18 -19 -20 26 -22 -23 -24 -25 -26 -27 -28 -29 -30
leaf_value=-0.013284421491168314 -0.015144066636439746 -0.014875434225012574 -0.0082122693007642585 -0.011798476305501215 -0.0020473217830229342 -0.010855538787856561 -0.010365818162327227 -0.0092969006438484072 -0.00035677164793014528 0.0052738946116747077 0.0110644704801894 -0.011485874995219808 -0.011725996170431524 -0.010437498393568022 -0.0088020391354513405 -0.0096517864733502504 0.010623158801159785 0.01653584549693685 0.010852766227362186 -0.010026537619055587 0.010912614936629933 0.014260980582254624 -0.0045808595060312894 -0.0017272142620430781 0.012438991623549708 0.011990762389978187 0.0060115809241930648 -0.015341446894052722 -0.0081494237181825753
leaf_count=1180 9276 1359 572 725 445 323 460 667 205 783 687 1210 203 103 201 345 577 76 861 188 120 15091 723 485 1797 1537 234 2673 1546
internal_value=0 0.079419 0.173077 0.222972 0.252441 -0.179358 -0.0486179 0.0514978 0.123419 0.265824 -0.00844975 -0.220652 -0.115448 0.0402368 0.111587 0.00745456 0.096133 -0.126514 0.17156 0.128458 -0.0979163 0.27355 -0.199554 -0.155233 0.205289 0.210754 -0.0226673 -0.264691 -0.225919
internal_count=44652 35376 25975 21203 18808 9401 4772 2869 2202 18116 2395 7913 2335 1488 1165 1125 780 1286 964 1109 692 17671 1903 1210 2580 1742 422 5578 2905
shrinkage=0.05


Tree=11
num_leaves=30
num_cat=0
split_feature=31 9 31 24 24 24 24 0 31 10 6 0 31 24 31 24 28 9 10 6 28 13 0 6 24 24 6 24 6
split_gain=970.306 730.171 186.623 144.998 193.984 127.955 80.937 44.6899 38.2516 37.0955 33.2922 23.9257 20.8282 19.2388 18.782 18.1847 16.1586 15.5633 14.954 16.4738 14.0506 16.8068 12.929 12.7728 12.1569 21.9152 10.9586 10.8775 9.70236
threshold=0.59493289641350589 3.4781369997985281 0.44777379465386985 1.0290516704163475 1.0121551768138539 1.0320881387558687 1.0081983587605994 15.349734075621877 0.37293489483744163 20.903640157576849 0.45620299875736242 18.249905655417198 0.38905097949857775 1.0533275176700609 0.398599978390409 1.0533275176700609 4.9636203459788169 7.5810022503710277 14.728365956722042 0.32171544432640081 3.5188847416778146 15.821441363533557 16.474202058647585 0.71592313051223766 1.0101117746757104 1.024402747174731 0.53359150886535656 1.0230884544993575 0.62584635615348827
decision_type=2 2 2 2 2 2 2 2 2 2 2 2 2 2 2 2 2 2 2 2 2 2 2 2 2 2 2 2 2
left_child=1 2 11 4 23 6 17 10 22 15 -6 -1 -13 -5 -11 26 -16 28 19 -10 -9 -22 -8 -4 -14 -26 -7 -12 -3
right_child=-2 5 3 13 7 9 8 20 18 14 27 12 24 -15 16 -17 -18 -19 -20 -21 21 -23 -24 -25 25 -27 -28 -29 -30
leaf_value=-0.013136939275397289 -0.014568512211789142 -0.011785828134990092 -0.013253663347705322 -0.01119352404909711 -0.004949633462469006 -0.013939970349521736 -0.0091151156665856947 0.012591931743217911 0.0023133460281265748 -0.011160753297260385 0.0092410548981983441 -0.01183872800641164 -0.013952718568699701 0.017238961257895487 0.010179234670785929 0.018865645925203959 -0.0085523182288148366 0.008939854995389681 0.013703021763527971 0.011613282748025857 -0.022455060134331389 0.0072071296473344166 0.0064012201577425005 -0.0036153582062410277 0.0085497911543573057 -0.0083529425134141761 -0.0032939611110263146 -0.0012963907445063356 0.00078181700426557289
leaf_count=4227 9100 406 1360 2413 895 577 243 3093 592 153 1243 871 154 61 857 60 133 199 12773 2434 60 234 300 460 454 332 416 305 247
internal_value=0 0.07458 -0.0823918 0.000594381 0.0686517 0.20542 0.234451 0.157624 0.250117 -0.0218867 0.0545339 -0.221536 -0.125365 -0.20985 0.102862 -0.157297 0.153255 -0.0660307 0.259086 0.195877 0.231981 0.0230724 -0.0108511 -0.216352 -0.0221338 0.0282043 -0.1896 0.143298 -0.140641
internal_count=44652 35552 16162 10124 7650 19390 17194 5830 16342 2196 2443 6038 1811 2474 1143 1053 990 852 15799 3026 3387 294 543 1820 940 786 993 1548 653
shrinkage=0.05


Tree=12
num_leaves=30
num_cat=0
split_feature=11 31 17 9 31 24 6 31 24 24 24 31 31 31 24 24 31 24 5 24 24 31 9 11 24 31 11 21 31
split_gain=893.789 574.146 157.309 128.858 94.8679 70.5185 64.524 52.1848 50.4333 46.2052 55.118 42.252 38.0242 34.9548 24.7635 36.5255 21.8787 21.4989 19.0767 16.8903 40.3607 30.319 31.1724 17.3985 16.7663 16.7194 13.5361 12.1439 11.3071
threshold=2.5000000000000004 0.59493289641350589 2.0259636072570415 2.386924603485824 0.58889586126142823 1.0282589091350844 0.70048397779464733 0.59493289641350589 1.0045309922073018 1.0295953773731379 1.0121551768138539 0.46312603866899754 0.41433826712937877 0.39119144174886394 1.0274644602764045 1.0111843104774385 0.39376431214241453 1.0314213507529695 3.0934581632864924 1.0254394361571197 1.0145856858468576 0.59493289641350589 2.4274929070001705 15.500000000000002 1.011797990729377 0.38905097949857775 46.500000000000007 2.1158165614647539 0.37293489483744163
decision_type=2 2 2 2 2 2 2 2 2 2 2 2 2 2 2 2 2 2 2 2 2 2 2 2 2 2 2 2 2
left_child=1 3 6 11 12 8 19 9 -5 10 -8 -1 -4 -7 15 -13 -12 24 27 20 -2 22 -22 28 -14 -10 -18 -15 -24
right_child=2 -3 4 5 -6 13 7 -9 25 -11 16 14 17 18 -16 -17 26 -19 -20 -21 21 -23 23 -25 -26 -27 -28 -29 -30
leaf_value=-0.0086330615173952265 -0.013544091776661252 -0.014058266303439934 -0.0067156633803429596 -0.0043312549787996096 -0.013669235044910062 -0.011860315555067205 -0.010578473803759321 -0.013823569310263626 0.0047347044660931547 -0.011452153943650433 -0.0075358980180674079 -0.0094083251666936644 -0.0021494589548195359 0.0027748053584702465 -0.0065492069536666258 0.010697781126580987 0.0089778463737963145 -0.0037690913204003022 0.010355183576713459 -0.013864750947310975 -0.008612169935657648 -0.013887423081898395 -0.011818590644118075 -0.010712221610007315 0.012314860770114759 0.012922083656843662 -0.015022158989163696 -0.014370565783036382 0.0082458331507900585
leaf_count=1020 3703 3000 477 454 775 335 682 1209 651 913 259 277 226 1098 436 1224 1593 296 1056 5335 1045 810 77 177 1765 14787 61 114 797
internal_value=0 0.128592 -0.155661 0.185896 0.0358139 0.216886 -0.196332 -0.0973054 0.241876 -0.0355574 0.0325167 -0.00793506 0.12251 0.0643132 0.0788077 0.139747 0.119535 0.176076 0.10885 -0.23544 -0.201654 -0.113439 -0.0499416 0.0716619 0.21346 0.251537 0.161854 0.0232424 0.129563
internal_count=44652 24452 20200 21452 3539 18495 16661 4717 15892 3508 2595 2957 2764 2603 1937 1501 1913 2287 2268 11944 6609 2906 2096 1051 1991 15438 1654 1212 874
shrinkage=0.05


Tree=13
num_leaves=30
num_cat=0
split_feature=11 31 17 17 31 6 31 31 11 31 31 31 6 28 13 11 28 17 6 5 5 11 31 9 31 6 28 6 0
split_gain=806.644 518.167 141.971 117.002 85.6183 58.3009 58.0907 48.0196 44.3728 43.0925 34.3507 26.0211 21.7577 19.7286 31.9726 19.333 16.6056 16.4781 15.9465 15.742 13.7337 13.3106 14.9192 18.3584 14.6859 12.6856 11.0422 10.5874 10.1194
threshold=2.5000000000000004 0.59493289641350589 2.0259636072570415 1.0525930015788936 0.58889586126142823 0.68868508934974682 0.38905097949857775 0.59493289641350589 8.5000000000000018 0.46312603866899754 0.39613655448816637 0.39613655448816637 0.37198431789875036 4.8679514673235564 20.293546186947378 11.500000000000002 3.3518082966250629 0.89941401699119139 0.27967984974384313 3.5906703029144986 2.6000702095692136 6.5000000000000009 0.58714209998785605 2.4274929070001705 0.38905097949857775 0.5016041398048402 3.1325940986601855 0.60500684380531322 16.04477460226914
decision_type=2 2 2 2 2 2 2 2 2 2 2 2 2 2 2 2 2 2 2 2 2 2 2 2 2 2 2 2 2
left_child=1 3 5 9 10 21 19 8 11 27 -4 -7 -11 18 -15 25 17 -13 20 -5 28 22 23 -2 -25 -12 -26 -1 -8
right_child=2 -3 4 6 -6 7 13 -9 -10 12 15 16 -14 14 -16 -17 -18 -19 -20 -21 -22 -23 -24 24 26 -27 -28 -29 -30
leaf_value=-0.011784216352408854 -0.010898158640838138 -0.013355353103578091 -0.0084036575184892048 -0.005836658975694538 -0.012985773282666362 -0.0091829882949356033 -0.0033189627246276755 -0.013136243799003945 -0.0085740247179105795 -0.0035775071202476757 0.0040900163010314664 -0.0017446225518698523 0.0074915505703748502 -0.020566846210023634 0.0074761103170258667 -0.00369036134767842 -0.0063822254312760895 0.010195935011117535 0.012165960251417187 0.0073842467053940423 0.010749072905447285 -0.012584588010925489 -0.013050878636122198 -0.012868112286454753 0.0020347634000251278 0.0124223631784921 -0.0097321407584583068 -0.0017488229219044483 0.0071781582058953845
leaf_count=681 1530 3000 368 659 775 381 370 1266 1461 629 675 386 1509 115 875 308 264 1149 13668 342 1571 7160 1591 304 914 1413 255 428 605
internal_value=0 0.122163 -0.147877 0.176601 0.0340232 -0.186515 0.207791 -0.0949625 -0.0366304 0.00173052 0.116385 0.0537438 0.0847006 0.221416 0.0843719 0.160075 0.104022 0.143866 0.229784 -0.0263925 0.157121 -0.224736 -0.182725 -0.141245 -0.0615591 0.194574 -0.0106402 -0.158224 0.0638927
internal_count=44652 24452 20200 21452 3539 16661 18205 4907 3641 3247 2764 2180 2138 17204 990 2396 1799 1535 16214 1001 2546 11754 4594 3003 1473 2088 1169 1109 975
shrinkage=0.05


Tree=14
num_leaves=30
num_cat=0
split_feature=11 31 9 24 24 31 6 5 31 24 24 24 5 24 31 24 10 17 31 17 24 24 31 9 11 31 6 28 31
split_gain=727.996 467.645 128.617 110.151 109.732 85.7805 48.271 42.8036 38.6991 40.2604 48.1118 38.4001 28.7489 26.3908 25.9201 21.2926 17.9542 17.3087 14.1466 13.7557 13.3564 33.0619 24.5362 24.7562 13.0243 12.1862 10.2561 9.80478 9.38626
threshold=2.5000000000000004 0.59493289641350589 4.3614079977340783 1.0304749323992597 1.0097204009071004 0.58889586126142823 0.70048397779464733 2.814948244787554 0.59493289641350589 1.0282589091350844 1.0121551768138539 1.0302016730738306 2.3079525723035554 1.0131818219306974 0.40757927125879295 1.0513352817721573 12.739310299783709 1.8294219890642058 0.37293489483744163 0.89941401699119139 1.0252756385708073 1.0145856858468576 0.58889586126142823 2.4274929070001705 15.500000000000002 0.50662471550870458 0.46054343879222875 5.8138326803210232 0.44162897850266675
decision_type=2 2 2 2 2 2 2 2 2 2 2 2 2 2 2 2 2 2 2 2 2 2 2 2 2 2 2 2 2
left_child=1 3 6 4 12 11 20 15 9 10 -8 13 -1 -4 17 25 -12 -6 -15 26 21 -2 23 -23 -25 -5 -16 -9 -14
right_child=2 -3 5 7 14 -7 8 27 -10 -11 16 -13 28 18 19 -17 -18 -19 -20 -21 -22 22 -24 24 -26 -27 -28 -29 -30
leaf_value=-0.0095249022261422386 -0.012310142592001676 -0.012687585493177176 -0.004850461119380982 -0.010966248693974209 -0.0025936338548541915 -0.012347735209558399 -0.0097971756203840202 0.0085154145285097089 -0.012471735241798287 -0.010612377527493314 -0.001192081101289412 -0.0069852852380232686 -0.0070701304990966043 -0.0059931136777295786 -0.0017499758574947622 0.01414555922871636 0.0095488239332385694 0.009222353412228268 0.01065947983383027 0.011740645678644933 -0.012613093429114161 -0.0074268794852524554 -0.012397790539353422 0.0064789755984815608 -0.0094776170023905693 -0.0020365716912783684 0.0091699361217668258 -0.0088363016254446487 0.0094821264902750658
leaf_count=856 3670 3000 368 948 564 932 677 955 1173 956 588 554 111 136 318 124 1150 688 2049 15120 5194 1015 806 779 153 640 664 89 375
internal_value=0 0.116055 -0.140484 0.167771 0.195283 0.01913 -0.180375 -0.0188648 -0.0929897 -0.0385519 0.0302072 0.0989468 -0.0802132 0.150734 0.216588 -0.116184 0.118299 0.0779899 0.19246 0.227364 -0.214555 -0.184064 -0.101227 -0.0404852 0.0771898 -0.147348 0.112675 0.140724 0.114033
internal_count=44652 24452 20200 21452 18696 4039 16161 2756 4544 3371 2415 3107 1342 2553 17354 1712 1738 1252 2185 16102 11617 6423 2753 1947 932 1588 982 1044 486
shrinkage=0.05


Tree=15
num_leaves=30
num_cat=0
split_feature=11 31 9 24 24 31 9 24 24 31 24 31 5 24 11 31 31 31 24 9 9 31 31 28 24 28 24 9 31
split_gain=657.017 422.073 116.296 102.765 103.753 74.1694 49.1039 41.7425 92.6775 61.1955 34.6657 34.636 27.4491 22.6489 22.3057 17.5721 14.5951 13.6215 13.1261 12.1361 11.5187 11.1215 10.4438 10.251 9.35735 9.09361 7.84928 7.85863 10.1246
threshold=2.5000000000000004 0.59823229454678239 4.5062788602149686 1.0274644602764045 1.0111843104774385 0.58889586126142823 3.7180581169220228 1.0252756385708073 1.0159366962345391 0.59493289641350589 1.0262481824210343 0.42261492987391469 1.6817590693733699 1.0131818219306974 15.500000000000002 0.34261305022292704 0.37293489483744163 0.42476837872717027 1.0513352817721573 2.2170081619751132 2.1691251366491859 0.46815687742496254 0.43220004072443907 5.1844662778248818 1.0405263313932742 4.8679514673235564 1.0097204009071004 2.4380535483463248 0.58299669652156139
decision_type=2 2 2 2 2 2 2 2 2 2 2 2 2 2 2 2 2 2 2 2 2 2 2 2 2 2 2 2 2
left_child=1 3 7 4 12 10 18 8 26 11 13 -10 -1 -4 19 -6 -8 -14 22 -13 21 -17 -5 -18 -24 -21 -2 -28 -29
right_child=2 -3 5 6 15 -7 16 -9 9 -11 -12 14 17 -15 -16 20 23 -19 -20 25 -22 -23 24 -25 -26 -27 27 28 -30
leaf_value=-0.009524780718270582 -0.011900391646545359 -0.012229394814659169 -0.0039913924994753368 -0.012966201927198174 -0.0048058142566549189 -0.011697126675479751 -0.011087981679222801 -0.011429677793273221 -0.0065384541690272071 -0.01204971225956857 -0.0049526224296484421 0.0018074977804314009 -0.0093403664787849745 0.010100233064874975 -0.0053651965456083424 -0.0023199346832153372 0.0080451249450426768 0.0066036494325320385 0.012885390855800148 0.011055568230934551 0.011226338892877183 0.0089581418530520606 -0.00092945239307840218 -0.0052976392964019054 -0.010731555964495685 -0.012299597505913225 -0.010721577700877215 0.00055429280765594978 -0.011906694347758692
leaf_count=758 3717 2948 335 509 181 857 121 6966 769 908 670 594 166 1916 384 297 1619 694 87 1356 15004 828 712 158 370 43 969 465 251
internal_value=0 0.110252 -0.133459 0.158897 0.189771 0.0247339 0.00411169 -0.169853 -0.12658 -0.0123006 0.100628 0.0537051 -0.0517596 0.160062 0.113386 0.213732 0.114293 0.0705217 -0.120515 0.155907 0.217209 0.119615 -0.141197 0.137175 -0.0856275 0.206754 -0.212343 -0.155728 -0.0762803
internal_count=44652 24452 20200 21504 17928 3778 3576 16422 9456 4054 2921 3146 1618 2251 2377 16310 1898 860 1678 1993 16129 1125 1591 1777 1082 1399 5402 1685 716
shrinkage=0.05


Tree=16
num_leaves=30
num_cat=0
split_feature=11 31 9 24 24 31 9 11 31 24 24 24 5 31 24 31 31 5 24 5 31 28 24 28 24 5 10 13 24
split_gain=592.958 381.145 104.957 90.8129 93.6661 66.9379 44.458 37.7956 44.1703 50.0721 66.0097 31.2866 22.6061 21.1994 20.6008 18.0697 13.3345 12.5174 12.0277 11.036 9.58154 9.15965 8.48769 7.99862 7.849 9.13273 7.65601 7.43131 7.41147
threshold=2.5000000000000004 0.59493289641350589 4.5062788602149686 1.0274644602764045 1.0089444355880615 0.58889586126142823 3.7180581169220228 7.5000000000000009 0.58889586126142823 1.0252756385708073 1.0142286996780592 1.0260452854150077 2.3079525723035554 0.36393613396830987 1.0131818219306974 0.40757927125879295 0.37293489483744163 1.3687849682211051 1.0513352817721573 1.06986914210715 0.43392557501065487 5.1844662778248818 1.0405263313932742 3.3789743172367861 1.0142286996780592 1.3292134762285435 23.080451285365566 22.656724768834682 1.0533275176700609
decision_type=2 2 2 2 2 2 2 2 2 2 2 2 2 2 2 2 2 2 2 2 2 2 2 2 2 2 2 2 2
left_child=1 3 7 4 12 11 18 8 9 10 -2 14 -1 -12 -4 17 -8 -6 20 -15 -5 26 -22 -21 25 -17 -18 -23 -13
right_child=2 -3 5 6 15 -7 16 -9 -10 -11 13 28 -14 19 -16 24 21 -19 -20 23 22 27 -24 -25 -26 -27 -28 -29 -30
leaf_value=-0.0093171832103801054 -0.0083199783666960663 -0.011455920096983513 -0.003791822928990891 -0.012193027090458643 -0.0069390228586577486 -0.011112270274720087 -0.010533582585409654 -0.010265120015899919 -0.011226456907774629 -0.0094034695720166678 -0.011217940272763372 -0.0056333990356512084 0.0050170537084341053 -0.0017211619512479109 0.0096549194482410741 -0.0035358254817572047 0.002869314617118356 0.0064505062034236121 0.012527430941199147 0.01052938271724406 -0.00071940279237520392 -0.024175262764880533 -0.010197675720650275 -0.00028018064259253825 0.010780529694454873 0.0084489227123232691 0.010181207940315401 0.0012480590808189524 0.021095790907188699
leaf_count=797 1240 3000 335 525 213 857 121 8930 2295 1885 160 657 420 266 1902 188 537 967 86 1452 698 38 357 194 14284 1029 1074 118 27
internal_value=0 0.104739 -0.126786 0.151428 0.180422 0.0234972 0.00541808 -0.16136 -0.108984 -0.0579592 0.016092 0.0955963 -0.0874056 0.125305 0.152824 0.199962 0.110482 0.0806717 -0.113646 0.154566 -0.133469 0.132474 -0.0785349 0.185107 0.209042 0.131951 0.154878 -0.098896 -0.091566
internal_count=44652 24452 20200 21452 17898 3778 3554 16422 7492 5197 3312 2921 1217 2072 2237 16681 1888 1180 1666 1912 1580 1767 1055 1646 15501 1217 1611 156 684
shrinkage=0.05


Tree=17
num_leaves=30
num_cat=0
split_feature=11 31 17 24 24 31 6 5 31 11 31 31 24 24 17 24 11 6 24 24 31 11 31 6 6 5 31 6 24
split_gain=535.144 344.129 95.6276 83.7811 83.6185 57.3599 43.7307 33.0523 33.0462 31.8618 28.1538 26.2866 22.1028 19.7409 19.4026 16.1834 14.6367 12.9484 11.6439 27.9584 20.198 20.8984 18.4143 14.1266 11.2962 10.8628 10.0698 9.34045 9.34108
threshold=2.5000000000000004 0.59823229454678239 2.0259636072570415 1.0304749323992597 1.0050787492601108 0.58889586126142823 0.71592313051223766 2.814948244787554 0.59493289641350589 8.5000000000000018 0.41433826712937877 0.35756265761764955 1.0314213507529695 1.0069450009343874 0.89941401699119139 1.0513352817721573 11.500000000000002 0.46054343879222875 1.0254394361571197 1.0147736454592369 0.58889586126142823 13.500000000000002 0.36393613396830987 0.2908195853233338 0.7362998127937318 4.3059451891308926 0.36703484367852607 0.5016041398048402 1.0338183309642466
decision_type=2 2 2 2 2 2 2 2 2 2 2 2 2 2 2 2 2 2 2 2 2 2 2 2 2 2 2 2 2
left_child=1 3 6 4 25 10 18 15 9 12 -4 -6 13 -8 17 24 27 -13 19 -2 21 22 -21 -24 -5 -1 -15 28 -12
right_child=2 -3 5 7 11 -7 8 -9 -10 -11 16 14 -14 26 -16 -17 -18 -19 -20 20 -22 -23 23 -25 -26 -27 -28 -29 -30
leaf_value=-0.0094886724732481369 -0.010609460908512608 -0.011045129319685772 -0.0062367907891233516 -0.0092521131428022953 -0.0040151571035385129 -0.010579251190347057 -0.0091553407952870199 0.0060732601310005624 -0.010735029450522064 -0.0068544149281603572 0.0062262267999447073 -0.0041018001422470007 -0.0076659003544288385 -0.0075639953166246419 0.0098054455397585238 0.012148207545280457 -0.003317542735220223 0.0069875953709112211 -0.010887231157742084 -0.012948108936861619 -0.010716899363937493 -0.0097444925050605355 -0.0042384573199400087 0.0068661740681058491 -6.1489133458388485e-05 0.008266691361763041 0.0088920644462604954 0.011003369289935956 -0.010618843107493883
leaf_count=712 3808 2948 477 1129 375 775 197 1048 1139 1335 543 405 384 100 16385 125 293 752 5420 194 835 568 410 950 475 98 1321 1354 97
internal_value=0 0.0995024 -0.120447 0.143427 0.167463 0.0288413 -0.152158 -0.0186643 -0.0676279 -0.0174284 0.0962546 0.181671 0.0623647 0.113553 0.187271 -0.103601 0.142347 0.0621166 -0.183209 -0.155539 -0.0825859 -0.0307418 0.0292557 0.0703691 -0.130609 -0.14681 0.15468 0.173013 0.0734629
internal_count=44652 24452 20200 21504 18727 3539 16661 2777 4476 3337 2764 17917 2002 1618 17542 1729 2287 1157 12185 6765 2957 2122 1554 1360 1604 810 1421 1994 640
shrinkage=0.05


Tree=18
num_leaves=30
num_cat=0
split_feature=11 31 17 9 31 24 6 31 31 24 24 24 6 31 24 31 17 6 31 6 24 24 31 6 24 24 28 28 24
split_gain=482.968 310.633 86.3039 76.3685 51.7673 43.0351 39.731 35.4646 40.3274 31.5951 27.8236 36.5828 27.5383 25.4088 22.4356 18.8799 15.1485 13.4795 11.8347 11.8396 11.5397 15.2499 11.2746 10.3349 9.53291 10.8677 9.17254 8.73021 8.72655
threshold=2.5000000000000004 0.59493289641350589 2.0259636072570415 2.386924603485824 0.58889586126142823 1.0341394806019071 0.5682019591331483 0.58714209998785605 0.42674127068999645 1.0003091848205461 1.0298719196419495 1.0085917349962694 0.61312901973724376 0.41433826712937877 1.0513352817721573 0.34661814923506246 0.99957027513567775 0.52909132838249218 0.42674127068999645 0.32171544432640081 1.0269646938556674 1.0144088693299655 0.46184065628805809 0.25703720748424536 1.0320881387558687 1.0121551768138539 4.1864329793011894 3.4876766137336843 1.0513352817721573
decision_type=2 2 2 2 2 2 2 2 2 2 2 2 2 2 2 2 2 2 2 2 2 2 2 2 2 2 2 2 2
left_child=1 3 6 12 13 9 -2 8 -8 -5 11 -10 22 -4 18 -11 -13 24 -7 -20 21 -14 -1 -17 25 -15 -18 -21 -12
right_child=2 -3 4 5 -6 14 7 -9 10 15 28 16 20 17 -16 23 26 -19 19 27 -22 -23 -24 -25 -26 -27 -28 -29 -30
leaf_value=-0.010322991998195648 -0.0092145255618046405 -0.010343522307773433 -0.0059249512773139924 -0.0088633866250514993 -0.010050288833918111 -0.010412032990938142 -0.0084800905068119891 -0.010013374667349029 -0.0091065493077039719 -0.0053402711186144088 -0.0086592624547599511 0.00066003116021911027 -0.0040876433063866732 -0.0099819158471148948 0.013709886940835997 0.0060903236432641797 0.010844244168232235 0.0095959807247728915 -0.0081653603390879834 0.0067485630695555887 -0.0038484693863070928 0.010347805352520006 -0.0017115702011536078 0.0097429772253735652 -0.010507751431535274 0.0069035814150417464 -0.0060364950275005299 -0.0058322988859899755 0.020335952965197742
leaf_count=625 10023 3000 477 250 775 336 1568 1893 450 225 667 695 236 115 262 2244 1252 1480 292 569 312 814 970 14135 136 556 86 182 27
internal_value=0 0.0945273 -0.114425 0.136677 0.0273992 0.160534 -0.14455 -0.0845439 -0.0383764 0.175586 0.0263895 0.0758649 -0.0125423 0.0914419 0.00594413 0.180899 0.132972 0.135229 -0.0450221 0.00755837 0.09189 0.142065 -0.101719 0.184851 0.0312619 0.0801929 0.195185 0.0739934 -0.150624
internal_count=44652 24452 20200 21452 3539 18495 16661 6638 4745 16854 3177 2483 2957 2764 1641 16604 2033 2287 1379 1043 1362 1050 1595 16379 807 671 1338 751 694
shrinkage=0.05


Tree=19
num_leaves=30
num_cat=0
split_feature=11 31 9 9 31 31 6 11 31 24 24 24 6 24 31 31 6 24 11 31 28 13 24 21 13 27 24 24 24
split_gain=435.878 280.585 78.0454 71.1604 51.8789 51.7444 32.7264 33.1533 33.0319 28.0343 31.8519 27.3003 26.3267 24.2701 15.2256 12.7536 12.3932 12.2254 12.3828 11.991 11.858 19.3461 10.9633 10.5637 9.82944 8.78923 8.04852 7.60095 7.40911
threshold=2.5000000000000004 0.59823229454678239 4.3614079977340783 3.691635422645585 0.58889586126142823 0.44777379465386985 0.46461249887943273 6.5000000000000009 0.58714209998785605 1.0338183309642466 1.0089444355880615 1.0298719196419495 0.44779989123344427 1.0085917349962694 0.34261305022292704 0.38663166161346679 0.60500684380531322 1.025834610527016 9.5000000000000018 0.39613655448816637 5.8138326803210232 23.605936316382827 1.0513352817721573 2.0103020446491162 15.471697136967444 0.99983310267341496 1.0341394806019071 1.0533275176700609 1.0254394361571197
decision_type=2 2 2 2 2 2 2 2 2 2 2 2 2 2 2 2 2 2 2 2 2 2 2 2 2 2 2 2 2
left_child=1 3 6 5 12 16 -2 8 11 10 -7 13 17 -8 -5 -15 -1 18 -4 -14 26 -22 -11 25 -25 -12 -16 -28 -9
right_child=2 -3 4 14 -6 9 7 28 -10 22 23 -13 19 15 20 -17 -18 -19 -20 -21 21 -23 -24 24 -26 -27 27 -29 -30
leaf_value=-0.0081927222478541603 -0.0092050485048630649 -0.0099756966818887322 0.0046869060884017757 -0.00618093914684208 -0.0095648437994232515 -0.006446036358829588 -0.007954991283188077 -0.0058041174601383763 -0.0093967116225557781 -0.0068427063748988026 0.0044468529614890727 -0.007567779111155009 -0.003746401435085412 -0.0048434760155422352 0.0093144229780646823 0.0087427805318045868 0.00021169718099783546 -0.010872358373469776 -0.012071824612769675 0.0082931017042614345 -0.0230376423664496 0.0051393307884395265 0.015086364355825244 -0.021447405781386035 0.0027210025518548259 0.0096479462345434343 0.0025543721553604954 0.014312556170555484 -0.0099071477814742862
leaf_count=1099 8203 2948 505 174 932 448 318 2639 873 598 1128 590 232 196 12640 1455 730 324 141 1905 71 429 63 53 204 2902 799 166 1887
internal_value=0 0.0898009 -0.108704 0.129463 0.015632 0.0485929 -0.139778 -0.0940901 -0.0199684 0.097863 0.124794 0.0373329 0.077704 0.0938724 0.170383 0.142598 -0.0967661 -0.0589254 0.0205808 0.139721 0.17401 0.022764 -0.0950529 0.151307 -0.0452629 0.163843 0.179568 0.0915405 -0.150295
internal_count=44652 24452 20200 21504 4039 7225 16161 7958 3432 5396 4735 2559 3107 1969 14279 1651 1829 970 646 2137 14105 500 661 4287 257 4030 13605 965 4526
shrinkage=0.05


Tree=20
num_leaves=30
num_cat=0
split_feature=11 31 17 24 24 6 31 17 31 31 5 31 24 24 11 24 24 31 9 31 31 24 6 6 11 17 28 11 24
split_gain=393.38 253.228 70.884 65.9559 69.3797 38.3176 35.1623 32.2864 29.0838 29.0213 17.9782 16.5012 16.2215 16.4992 11.7237 15.9155 27.1882 19.0459 11.4273 11.4138 11.1566 10.9711 10.4881 10.3567 9.85077 9.25789 8.78102 8.61624 7.99653
threshold=2.5000000000000004 0.59823229454678239 2.2870982270350919 1.0274644602764045 1.0111843104774385 0.71592313051223766 0.58889586126142823 1.6661997375655555 0.59493289641350589 0.47423161910147493 1.6817590693733699 0.40550217507127012 1.0311066625221823 1.0065105124188165 6.5000000000000009 1.0242405649839375 1.0144088693299655 0.58889586126142823 1.9414924509600489 0.32083918489287683 0.42476837872717027 1.0533275176700609 0.7362998127937318 0.48874565958976751 6.5000000000000009 0.81390908724775823 2.4899478369720716 11.500000000000002 1.0497768301008394
decision_type=2 2 2 2 2 2 2 2 2 2 2 2 2 2 2 2 2 2 2 2 2 2 2 2 2 2 2 2 2
left_child=1 3 5 4 10 14 11 21 9 24 -1 -4 13 -11 15 16 -2 18 -18 -6 -12 22 -5 -9 -7 -21 -24 -13 -14
right_child=2 -3 6 7 19 8 -8 23 -10 12 20 27 28 -15 -16 -17 17 -19 -20 25 -22 -23 26 -25 -26 -27 -28 -29 -30
leaf_value=-0.0081032039042277203 -0.0084358215912311591 -0.0094769117774965005 -0.0053341077103570929 -0.0081712298505692334 -0.012228688931287226 -0.00070602492219702141 -0.0088973650294142149 -4.6042062108672925e-06 -0.0092898936079272749 -0.0078799448748004628 -0.0091854141419192396 0.0081087618417389051 -0.0081237686739402751 0.0079394295345321837 -0.0090256340028126159 -0.0090067332602368298 -0.0066553446140728504 -0.0094695005613641865 0.0068110446924436636 0.0021162169331708116 0.005244089153082639 0.014070907355965796 0.0052520758570861244 0.0077993100450299896 -0.0085704694356283414 0.0086757867415481332 -0.0081667760879264601 -0.0020996193890854462 0.020218524005677967
leaf_count=758 1361 2948 326 1198 67 702 566 702 1185 187 166 1665 318 1390 7599 2294 190 312 922 557 694 74 331 1078 920 15686 193 236 27
internal_value=0 0.0853108 -0.103268 0.12299 0.147724 -0.126997 0.0446169 -0.00101349 -0.0501763 -0.00482879 -0.049785 0.101182 0.0783018 0.121271 -0.155652 -0.118456 -0.0676508 0.0289436 0.0902027 0.167318 0.0491772 -0.0956084 -0.11181 0.0944317 -0.103335 0.169017 0.00619272 0.136829 -0.118114
internal_count=44652 24452 20200 21504 17928 17407 2793 3576 4729 3544 1618 2227 1922 1577 12678 5079 2785 1424 1112 16310 860 1796 1722 1780 1622 16243 524 1901 345
shrinkage=0.05


Tree=21
num_leaves=30
num_cat=0
split_feature=11 31 9 24 24 11 31 9 24 24 24 24 31 6 24 31 6 6 6 28 13 31 31 28 31 24 28 0 10
split_gain=355.05 258.371 84.2046 56.5898 67.2345 41.0784 43.2276 42.8074 37.6233 25.9976 15.4661 14.7588 13.5515 12.2703 11.489 11.3726 10.3112 9.44429 9.0287 8.6178 19.3581 8.41993 8.29415 7.03187 6.94332 6.90642 6.72461 6.47192 6.46986
threshold=3.5000000000000004 0.59493289641350589 3.7180581169220228 1.025834610527016 1.0138242378148077 8.5000000000000018 0.58889586126142823 2.4506590013002669 1.028530378418506 1.0121551768138539 1.0338183309642466 1.0003091848205461 0.35756265761764955 0.78988870978355419 1.0533275176700609 0.36393613396830987 0.70827805995941173 0.88769337534904491 0.48874565958976751 3.4876766137336843 15.61204583048921 0.47665407248738217 0.33021020695808678 2.4899478369720716 0.4980212477884593 1.0533275176700609 4.7836727377825907 30.316636579236896 15.52567122819003
decision_type=2 2 2 2 2 2 2 2 2 2 2 2 2 2 2 2 2 2 2 2 2 2 2 2 2 2 2 2 2
left_child=1 2 3 4 16 6 7 24 9 -9 11 -4 -6 25 18 -11 -1 -7 27 28 -21 -18 -13 -15 -2 -5 -17 -12 -14
right_child=5 -3 10 13 12 17 -8 8 -10 15 14 22 19 23 -16 26 21 -19 -20 20 -22 -23 -24 -25 -26 -27 -28 -29 -30
leaf_value=-0.008237305741152565 -0.0079963569098663902 -0.0088423801778508646 -0.0067002879478127129 -0.0080137001042152045 -0.0081600159809396069 -0.0085081935324858651 -0.0087029498600900562 -0.0047773634034757595 -0.0061667988230795986 -0.0075960592597449604 -0.0099243308673950207 -0.0077557631023228175 0.004223070719749933 0.0051334445369862472 0.013387990043713497 0.0096486740466207276 -0.0066684684004539099 -0.0030511745252774711 0.0042722173600361268 -0.023678608845387188 0.0052394593078754622 0.0074130936146038287 0.0083902372396854503 -0.0069146758984794934 -0.0022496253567103725 0.011034639879148834 -0.0035261116921901704 0.0024104743033130736 0.0089113654610958118
leaf_count=1029 1518 3658 166 1649 148 8091 2416 477 883 109 276 80 946 366 195 1920 195 879 580 70 334 233 13812 181 804 49 102 173 3313
internal_value=0 0.0705799 0.108617 0.0289141 0.0777086 -0.11266 -0.0616351 -0.0149095 0.0550773 0.115483 0.153016 0.162403 0.134705 -0.107319 0.0452033 0.16272 -0.110491 -0.159469 0.00302785 0.14416 0.00457806 0.0199486 0.165945 0.0229354 -0.120131 -0.14928 0.179681 -0.103434 0.1574
internal_count=44652 27453 23795 8513 6268 17199 8229 5813 3491 2608 15282 14058 4811 2245 1224 2131 1457 8970 1029 4663 404 428 13892 547 2322 1698 2022 449 4259
shrinkage=0.05


Tree=22
num_leaves=30
num_cat=0
split_feature=11 31 9 31 6 31 31 9 24 24 31 9 24 24 6 10 31 24 0 28 6 6 24 24 5 28 28 24 24
split_gain=321.476 206.736 59.1296 57.9545 36.3315 34.5662 39.9436 34.2442 31.2236 46.0136 25.1988 20.699 16.5188 16.3284 16.1572 13.3898 12.1404 11.9467 11.293 9.55085 8.96329 8.33141 8.06098 7.99294 7.62726 7.37059 7.13242 7.00921 10.2068
threshold=2.5000000000000004 0.59823229454678239 5.6893186341845672 0.40550217507127012 0.46461249887943273 0.58714209998785605 0.40970029240515782 2.359576171924469 1.0252756385708073 1.0097204009071004 0.58889586126142823 5.939485878099295 1.0341394806019071 1.0003091848205461 0.66441053152084362 11.446410077142376 0.39613655448816637 1.0513352817721573 18.249905655417198 3.8632935229181657 0.32171544432640081 0.28300729393959051 1.0533275176700609 1.0341394806019071 1.4520989583484398 3.4876766137336843 2.9124220601014161 1.0101117746757104 1.0229708951512719
decision_type=2 2 2 2 2 2 2 2 2 2 2 2 2 2 2 2 2 2 2 2 2 2 2 2 2 2 2 2 2
left_child=1 3 4 11 -2 6 -6 14 9 -8 16 21 13 -9 18 24 -4 20 -5 -17 -14 -1 -10 -18 -11 -22 -16 -20 -29
right_child=2 -3 10 7 5 -7 8 12 22 15 -12 -13 17 -15 26 19 23 -19 27 -21 25 -23 -24 -25 -26 -27 -28 28 -30
leaf_value=-0.011689825179775092 -0.0079156714619867292 -0.0085609471453214764 -0.0055892326555918408 -0.0075390241260051005 -0.0077991261062105299 -0.0082710516628977694 -0.0076327723583241277 -0.0065034183240172891 -0.0058506185725868288 -0.005389731701865845 -0.0080052909678853118 0.0053919851378951642 -0.0073148767446509057 0.0078040821754351555 0.0071901636437401856 0.010041997667374052 0.0078830751151871426 0.011780352056736039 -0.0093812284161563682 -0.0036260860607675882 0.0051924529318936215 -0.0033186937326180666 0.021744976882581358 -0.0030487592193357491 0.0055175557691532068 -0.0059944214598502523 -0.004821299099259907 0.0090435803994992989 -0.0049841658418695329
leaf_count=427 8898 2948 229 659 1767 2588 697 202 1332 287 443 576 322 15577 872 1731 1512 252 119 138 621 978 27 188 363 193 144 359 203
internal_value=0 0.0771209 -0.0933545 0.111166 -0.113089 -0.0680273 -0.0282835 0.127703 0.0210377 0.0747405 0.0549727 -0.0518067 0.143218 0.152418 0.0146505 0.13766 0.104366 0.0386289 -0.0574586 0.180656 -0.00506691 -0.117256 -0.106047 0.133483 0.0140314 0.0508007 0.109755 0.0328486 0.0795324
internal_count=44652 24452 20200 21504 17828 8930 6342 19523 4575 3216 2372 1981 17167 15779 2356 2519 1929 1388 1340 1869 1136 1405 1359 1700 650 814 1016 681 562
shrinkage=0.05


Tree=23
num_leaves=30
num_cat=0
split_feature=9 31 0 31 31 11 28 6 31 17 11 28 13 31 6 13 6 0 6 31 31 27 31 19 6 11 31 31 17
split_gain=291.257 157.817 81.7264 65.8286 47.121 41.1176 34.7194 25.554 20.4256 19.4191 18.251 15.9585 19.8784 15.9278 15.6502 13.1011 10.7247 10.9632 10.5896 9.16232 7.77255 7.24606 6.93968 6.86372 6.04036 6.19135 7.18998 12.8761 6.98209
threshold=3.8038510622023867 0.59823229454678239 16.34091805590112 0.59117827457093475 0.40970029240515782 6.5000000000000009 3.2964856237868534 0.77476522326469432 0.35424318632743751 0.91850634115623808 6.5000000000000009 5.3098409116650034 23.605936316382827 0.59117827457093475 0.62207502126693737 15.770109885111262 0.2908195853233338 14.78866225759333 0.46054343879222875 0.36703484367852607 0.36703484367852607 0.99991420399624176 0.47423161910147493 53.264121854506278 0.37563841044902807 15.500000000000002 0.58889586126142823 0.44777379465386985 0.88437232467644533
decision_type=2 2 2 2 2 2 2 2 2 2 2 2 2 2 2 2 2 2 2 2 2 2 2 2 2 2 2 2 2
left_child=2 5 7 4 -4 8 9 24 -2 18 13 16 -13 19 -7 -8 17 22 -6 -9 -16 23 -10 -11 -1 26 27 -26 -29
right_child=1 -3 3 -5 6 14 15 10 11 21 -12 12 -14 -15 20 -17 -18 -19 -20 -21 -22 -23 -24 -25 25 -27 -28 28 -30
leaf_value=-0.0080712776543044405 -0.0048218593994776415 -0.0081921759301582034 -0.0061234394364914641 -0.0078999828961552245 -0.0044822120430952905 -0.0074551322605237481 -0.01389465362631849 -0.010015103800429239 -0.0087732253486619283 0.0048275085229406633 -0.006218758489657604 -0.01741612838374244 0.0036522280492978852 -0.0081516639453119936 -0.01340739446096733 -0.0010494629702260418 0.0079147109522270751 0.0064044469973856127 0.0040407573588383504 0.0051619318964709329 0.0054287373686014717 0.0089856441753121703 0.0022117535895390676 -0.019810844084312176 -0.0077176786861729088 -0.0083873026050011717 -0.0079387517578021465 -0.0054636984836401014 0.0016715341166096593
leaf_count=6387 375 2188 1428 2113 582 717 280 108 204 1118 1362 135 656 339 61 682 12899 1754 975 1255 536 2564 487 29 994 1622 1179 492 1131
internal_value=0 0.0896175 -0.0727851 -0.00174035 0.0413748 0.120731 0.07893 -0.119471 0.134281 0.110831 -0.038099 0.139643 0.00112982 0.0309422 -0.0495187 -0.0957638 0.146784 0.0860596 0.0170982 0.079187 0.0700821 0.150158 -0.0206256 0.0840914 -0.140592 -0.116032 -0.0939346 -0.064723 -0.00982914
internal_count=44652 20012 24640 9771 7658 17824 6230 14869 16510 5268 3064 16135 791 1702 1314 962 15344 2445 1557 1363 597 3711 691 1147 11805 5418 3796 2617 1623
shrinkage=0.05


Tree=24
num_leaves=30
num_cat=0
split_feature=11 31 9 31 24 24 31 24 24 6 31 5 9 31 28 31 13 10 10 11 5 24 6 6 24 21 24 24 17
split_gain=264.642 169.118 49.1072 48.1486 30.5466 70.3284 37.9679 28.6265 31.3825 23.6501 20.3181 17.8645 17.3387 12.0998 11.1561 10.2644 9.53176 8.82182 8.52303 8.32115 8.0429 7.82894 7.27591 7.24448 7.03803 6.95694 6.52048 11.9416 6.19853
threshold=2.5000000000000004 0.59493289641350589 5.8175770663339987 0.40550217507127012 1.0242405649839375 1.0156858876694259 0.59493289641350589 1.0045309922073018 1.0274644602764045 0.37563841044902807 0.58889586126142823 1.6589187502103242 5.939485878099295 0.36703484367852607 3.4312285040400798 0.39613655448816637 16.917699259817095 17.937231446242581 11.355912931429772 7.5000000000000009 4.3059451891308926 1.0145856858468576 0.48874565958976751 0.28300729393959051 1.0597994916366156 0.79234409148062512 1.025834610527016 1.0160623221218108 0.93956724899876842
decision_type=2 2 2 2 2 2 2 2 2 2 2 2 2 2 2 2 2 2 2 2 2 2 2 2 2 2 2 2 2
left_child=1 3 4 12 5 -2 9 20 21 19 15 -10 23 -11 17 -4 -16 -13 28 25 -5 22 -9 -1 -6 -7 27 -25 -15
right_child=2 -3 10 7 24 6 -8 8 11 13 -12 14 -14 18 16 -17 -18 -19 -20 -21 -22 -23 -24 26 -26 -27 -28 -29 -30
leaf_value=-0.010801512927724272 -0.0069682290816843644 -0.0076207683598001801 -0.0052669789710449513 -0.0073296848975587638 -0.0075265451918695011 -0.0090288020611282386 -0.0077984898326819117 -0.00024765394403632868 -0.0047907861904436799 -0.0056729719945878693 -0.0072994771789616124 -0.00030302120096705582 0.0049329461529850965 -0.0051703660387773902 -0.018360603773375835 0.0062815228155504435 0.00035238826833665376 0.0080276692270637561 0.0089678465522061348 -0.0086624131344145341 0.0094491060060190868 0.0074179543735103329 0.0063814803808791955 -0.0084987247624550479 0.017150561794124799 0.004602626348835427 -0.0085132516468363686 0.0055669825378192629 0.0055087361930455372
leaf_count=427 5643 3000 218 512 7879 126 881 664 833 198 416 432 576 196 82 1639 400 1202 1774 394 83 14164 1099 249 29 364 346 383 443
internal_value=0 0.0699725 -0.0847014 0.101073 -0.102258 -0.0655849 0.0295565 0.116184 0.122992 0.0763229 0.0537671 0.0282334 -0.0474557 0.124188 0.0770675 0.098516 -0.056623 0.116504 0.143688 -0.0650512 -0.0997823 0.140537 0.0776949 -0.107357 -0.148721 0.021948 -0.0599103 0.000505438 0.0446629
internal_count=44652 24452 20200 21452 17927 10019 4376 19471 18876 3495 2273 2949 1981 2611 2116 1857 482 1634 2413 884 595 15927 1763 1405 7908 490 978 632 639
shrinkage=0.05


Tree=25
num_leaves=30
num_cat=0
split_feature=11 31 24 24 5 6 17 31 31 31 5 31 6 11 17 6 31 5 6 5 6 24 24 6 27 10 24 24 31
split_gain=239.069 197.322 75.0646 71.2333 27.3293 17.351 16.2406 15.8575 15.5531 15.931 14.6765 11.8847 11.3451 10.9111 10.4388 8.3821 7.79721 7.66852 7.26353 6.93925 6.82147 6.68231 6.72004 6.07743 6.07387 6.03704 5.30545 10.8497 7.43779
threshold=4.5000000000000009 0.58889586126142823 1.0279640498969271 1.0111843104774385 2.6421605405783835 0.76708251237869274 1.016771206779864 0.36393613396830987 0.59117827457093475 0.42057589519877958 1.6817590693733699 0.45208460518193522 0.7362998127937318 1.5000000000000002 0.80989587437068866 0.4933354258537293 0.47542777206016956 2.9495256088798638 0.52479657530784618 5.0831219259857248 0.36033083498477941 1.0298719196419495 1.0065105124188165 0.21447149664163592 0.99988174595264356 18.096350425275102 1.0254394361571197 1.0155409124585841 0.58416002481948581
decision_type=2 2 2 2 2 2 2 2 2 2 2 2 2 2 2 2 2 2 2 2 2 2 2 2 2 2 2 2 2
left_child=1 2 3 10 12 19 -7 17 9 -8 -1 -12 24 -6 20 -15 -14 -5 -13 25 -9 22 -11 -16 -4 -2 27 -27 -29
right_child=5 -3 4 7 13 6 8 14 -10 21 11 18 16 15 23 -17 -18 -19 -20 -21 -22 -23 -24 -25 -26 26 -28 28 -30
leaf_value=-0.0068484914650098752 -0.0071792705357805733 -0.0069300511965010069 -0.0094545200361427703 -0.0062203868253574478 0.0065048029478232518 -0.0064698120525220589 -0.0060466683185532739 -0.0071381684411410719 -0.0073093447243345201 -0.0055175782181322575 -0.0071489478009799656 -0.0011420554726842851 -0.0052021821058505658 -0.0087411659574785899 0.0040727067710598797 0.0030264435386885714 0.0047100350935069674 0.0068734044738021907 0.0088274747749854787 0.0018839591670603978 0.0037767497026452834 -0.0023712942715395581 0.0096802905136800736 0.007199741211682484 -0.0039850175373577048 -0.0063167018865246368 -0.007054510310292245 0.0051124106244000694 -0.0072804604668783232
leaf_count=1180 8154 4710 987 361 1053 1244 331 199 435 80 299 315 353 258 1719 366 453 162 435 252 510 176 801 16168 1045 830 1100 518 158
internal_value=0 0.0496544 0.0839383 0.108714 -0.0332078 -0.107826 -0.0413062 0.128438 0.0188058 0.0705146 -0.0604626 0.025599 -0.0930139 0.0680026 0.133267 -0.0367802 0.00737657 -0.0432913 0.0928054 -0.126353 0.0142637 0.130467 0.166005 0.137984 -0.132834 -0.130195 -0.0882955 -0.0497337 0.044317
internal_count=44652 30573 25863 21348 4515 14079 3067 19119 1823 1388 2229 1049 2838 1677 18596 624 806 523 750 11012 709 1057 881 17887 2032 10760 2606 1506 676
shrinkage=0.05


Tree=26
num_leaves=30
num_cat=0
split_feature=17 31 0 31 31 11 28 6 24 24 31 11 24 24 6 13 31 28 13 6 31 27 24 24 31 31 28 19 11
split_gain=217.439 118.673 64.9273 50.947 37.4361 32.2252 27.188 20.636 18.1423 18.2058 15.844 14.0157 12.8941 13.4401 12.1233 12.0607 11.8945 11.6087 14.8846 7.8041 7.67531 7.1773 6.46317 20.9874 9.81876 11.525 6.7433 6.34803 6.33241
threshold=1.6518848796847989 0.59823229454678239 16.34091805590112 0.58889586126142823 0.41236333819906695 6.5000000000000009 3.4583259195399694 0.77476522326469432 1.0341394806019071 1.0081983587605994 0.398599978390409 6.5000000000000009 1.0245598508484004 1.0124382041438638 0.6471678912639619 17.347264057203287 0.59117827457093475 5.8138326803210232 25.827106908919323 0.21447149664163592 0.38419040522242925 0.99984714654451867 1.0242405649839375 1.0159366962345391 0.58156037001136729 0.44620964787212458 0.97837104430327193 47.75749623460856 1.5000000000000002
decision_type=2 2 2 2 2 2 2 2 2 2 2 2 2 2 2 2 2 2 2 2 2 2 2 2 2 2 2 2 2
left_child=2 5 7 4 -4 10 8 22 9 -6 12 16 13 -2 -7 -8 20 19 -19 28 -9 27 23 -1 25 -25 -27 -11 -12
right_child=1 -3 3 -5 6 14 15 11 -10 21 17 -13 -14 -15 -16 -17 -18 18 -20 -21 -22 -23 -24 24 -26 26 -28 -29 -30
leaf_value=-0.0074001061844707382 -0.010240375817241805 -0.0070778697085943842 -0.005223420603209657 -0.006747280189377064 -0.0037350968080897664 -0.0063643045090382398 -0.012323316389027937 -0.0073470495845357033 -0.0027151727426193801 0.003868385219732217 0.0052869093041085918 -0.005365647160673598 -0.0079863254035179541 0.0067827188857842854 0.0033176825887390547 8.0333008701282172e-05 -0.0070003465793672063 -0.017846038050594783 0.0031286984716338674 0.0068923863407036453 0.004777888825978815 0.0081560191878655656 -0.0074273408777813955 -0.0053049612646343331 -0.0067466589600806218 -0.0097607797832899197 0.0042464887876759814 -0.021672918677330018 -0.0018000503284332555
leaf_count=3827 142 2201 1471 2166 430 765 324 146 673 904 992 1359 343 632 560 496 336 105 435 13358 1231 3301 5498 595 653 93 1129 25 462
internal_value=0 0.0774921 -0.0628403 0.000395595 0.0388464 0.104587 0.0731087 -0.104482 0.0991742 0.12134 0.116658 -0.0314786 0.00166939 0.0731924 -0.0454459 -0.0964124 0.0286841 0.125024 -0.0189945 0.130275 0.0698462 0.141268 -0.123495 -0.101622 -0.029761 0.00803612 0.0636094 0.063621 0.0607014
internal_count=44652 19995 24657 9790 7624 17794 6153 14867 5333 4660 16469 3072 1117 774 1325 820 1713 15352 540 14812 1377 4230 11795 6297 2470 1817 1222 929 1454
shrinkage=0.05


Tree=27
num_leaves=30
num_cat=0
split_feature=17 31 10 31 31 24 28 24 13 24 24 24 6 31 10 31 31 6 28 10 24 24 31 31 28 6 17 27 31
split_gain=196.238 107.102 58.9761 48.7696 37.2247 26.4154 25.2542 25.1165 17.446 15.9176 16.2403 15.3134 14.6928 11.959 9.877 8.02134 8.81736 7.88683 7.51514 7.46426 7.22847 25.1685 10.2035 12.7821 7.18292 6.87802 5.66607 5.53135 5.51919
threshold=1.6518848796847989 0.59823229454678239 18.447755239419902 0.58889586126142823 0.40550217507127012 1.0341394806019071 2.7626075248680593 1.0045309922073018 15.52002658121887 1.0341394806019071 1.0081983587605994 1.0513352817721573 0.87847635149955761 0.33021020695808678 21.28233355434698 0.59493289641350589 0.45629512834754604 0.21117883920669558 4.8679514673235564 21.473104918048101 1.0233561914088876 1.0159366962345391 0.59493289641350589 0.44620964787212458 4.9636203459788169 0.28709164261817938 0.85202150314419667 0.99990595859795561 0.38905097949857775
decision_type=2 2 2 2 2 2 2 2 2 2 2 2 2 2 2 2 2 2 2 2 2 2 2 2 2 2 2 2 2
left_child=2 5 12 4 -4 7 9 -2 -8 10 -6 14 20 -9 -7 16 -14 19 27 -15 21 -1 23 -23 28 -25 -12 -10 -16
right_child=1 -3 3 -5 6 11 8 13 18 -11 26 -13 15 17 24 -17 -18 -19 -20 -21 -22 22 -24 25 -26 -27 -28 -29 -30
leaf_value=-0.0070234730589558347 -0.0050834544866441567 -0.0067239761894153293 -0.0054273026850164448 -0.0064379260431268685 -0.0033858696782820999 -0.007711378238135321 -0.0094796362510892792 -0.0085624542325101003 -0.0030851758681366605 -0.0024395638640132247 0.0030696170565522752 0.010267697956140449 -0.0045616898419601577 -0.0018993697851005884 -0.0095791827383879067 -0.0067614944419461531 0.0043619477185489509 0.0064307528961849063 -0.0086188567768443729 0.0053983519703411226 -0.0069991638456060523 -0.0051897468248612126 -0.0067009401747561764 -0.0030744315657699316 -0.010633255956710969 0.0056830864169277774 0.0079467885166424959 0.0049948646284141878 0.0050552283783993094
leaf_count=3961 535 2201 1533 2431 411 652 534 141 289 627 729 246 420 569 74 409 812 14054 165 912 5868 559 528 285 113 1051 3252 793 498
internal_value=0 0.0736175 -0.0596983 -0.00413614 0.0322202 0.0993577 0.0639547 0.111398 -0.0383484 0.100257 0.121535 -0.0239403 -0.102747 0.118669 -0.0661291 -0.0138874 0.026396 0.121301 0.0264186 0.0518914 -0.114648 -0.091361 -0.0110809 0.023173 0.0177251 0.0762981 0.141074 0.056734 0.0632393
internal_count=44652 19995 24657 10764 8333 17794 6800 16211 1781 5019 4392 1583 13893 15676 1337 1641 1232 15535 1247 1481 12252 6384 2423 1895 685 1336 3981 1082 572
shrinkage=0.05


Tree=28
num_leaves=30
num_cat=0
split_feature=11 31 24 24 11 5 11 17 31 31 5 31 24 24 24 5 21 24 24 31 28 24 31 0 28 28 24 27 31
split_gain=179.986 145.803 59.5012 58.8946 22.0751 16.7731 13.0883 12.8507 16.5457 15.4954 11.8789 11.0285 10.04 12.1811 9.4107 9.67502 10.4393 7.97038 7.27708 6.70168 6.51848 6.39302 6.35868 5.53926 5.31235 5.24375 5.20601 5.1469 5.0534
threshold=4.5000000000000009 0.59493289641350589 1.0279640498969271 1.0134181227354915 1.5000000000000002 2.3664878760895269 9.5000000000000018 1.0058908713716856 0.59117827457093475 0.41844698173248557 1.9032099641545555 0.32559608209903051 1.0345353460478945 1.0081983587605994 1.0228582854028125 1.8784338896162878 1.9871167318054652 1.0533275176700609 0.99974666497842879 0.45208460518193522 3.4312285040400798 1.0341394806019071 0.50088692001069501 16.34091805590112 2.746256540427642 5.1844662778248818 1.0513352817721573 0.99973062417136804 0.38905097949857775
decision_type=2 2 2 2 2 2 2 2 2 2 2 2 2 2 2 2 2 2 2 2 2 2 2 2 2 2 2 2 2
left_child=1 2 3 5 10 18 7 -2 9 -9 26 -5 13 -11 -13 16 27 20 -1 -7 21 23 -20 -6 -24 -15 -4 -16 -12
right_child=6 -3 4 11 17 19 -8 8 -10 12 28 14 -14 25 15 -17 -18 -19 22 -21 -22 -23 24 -25 -26 -27 -28 -29 -30
leaf_value=-0.009594139694262727 -0.0057909269558838426 -0.0061658582981851682 -0.004536134909746076 -0.0084342301987549839 -0.0046416267127909281 -0.004096789913348468 -0.005950916206588797 -0.0055404816311897297 -0.0061319702198339068 -0.0061104647124685897 -0.0052095654388440065 0.0063620814566016405 -0.0048926220931548026 0.0076015537107790507 -0.0066278996715403125 0.0051283003787476761 -0.01752481271309414 0.0095432233144628256 -0.005564265858965356 0.0051748494532198536 -0.010637943494210253 -0.0060531186097033006 0.0041607516339031338 0.0045902004647182257 -0.0065919959953256481 -0.0089033851921558379 0.014311435761360023 0.0029002329760277872 0.0056803489433622911
leaf_count=527 2264 4492 605 136 322 251 8295 617 1075 205 116 15285 291 1282 184 2151 87 94 811 872 462 1304 428 328 157 50 39 617 1305
internal_value=0 0.0430839 0.0717436 0.0937737 -0.0318147 -0.0350538 -0.0935581 -0.0570449 -0.0192427 0.026218 0.0447683 0.115031 0.0724685 0.104715 0.117137 0.0663128 -0.0215033 -0.0948203 -0.0917615 0.0620512 -0.105936 -0.0806785 -0.0539651 0.000337906 0.0254994 0.13964 -0.0678949 0.01423 0.0958275
internal_count=44652 30573 26081 21506 4575 3046 14079 5784 3520 2445 2065 18460 1828 1537 18324 3039 888 2510 1923 1123 2416 1954 1396 650 585 1332 644 801 1421
shrinkage=0.05


Tree=29
num_leaves=30
num_cat=0
split_feature=9 31 10 31 31 24 24 28 24 6 24 24 31 6 17 13 24 24 0 31 31 10 21 24 24 31 31 28 27
split_gain=162.647 90.3154 46.9987 37.5273 31.2669 26.0853 19.9158 19.1642 15.8889 12.0043 11.7956 12.4177 11.3008 9.47789 9.08425 9.06137 8.67072 18.7139 7.43232 6.61973 7.11498 6.45379 7.74965 5.87176 20.8832 8.01438 9.55374 5.9154 5.80787
threshold=3.7180581169220228 0.59823229454678239 18.447755239419902 0.58889586126142823 0.46815687742496254 1.0341394806019071 1.0045309922073018 3.5188847416778146 1.0513352817721573 0.87847635149955761 1.0341394806019071 1.0003091848205461 0.33021020695808678 0.35292749106884008 5.1739669808447966 17.923761508189759 1.023220472687177 1.0134181227354915 9.6054412804625731 0.59493289641350589 0.47423161910147493 21.849113223489763 1.8986382838257769 1.0230884544993575 1.0161899980936895 0.60231918618353153 0.44620964787212458 1.0752008746378994 0.99984714654451867
decision_type=2 2 2 2 2 2 2 2 2 2 2 2 2 2 2 2 2 2 2 2 2 2 2 2 2 2 2 2 2
left_child=2 5 9 4 13 6 -2 10 14 23 11 -6 -8 -4 21 -9 17 -15 -14 20 -11 -7 -23 24 -1 26 -26 -28 -13
right_child=1 -3 3 -5 7 8 12 15 -10 19 -12 28 18 16 -16 -17 -18 -19 -20 -21 -22 22 -24 -25 25 -27 27 -29 -30
leaf_value=-0.0063448130534583787 -0.0047426000148414141 -0.006060416949407412 -0.0063849303131838803 -0.0057864487708278846 -0.0077836582240480819 -0.0080384609888939345 -0.008380677465450119 -0.012318139157026127 0.0098942768921081291 -0.0033292720153927807 -0.0022437944224006252 0.0028858363727839028 0.0025603122517222523 -0.0062892123952368708 0.0080368456979974714 0.00046500529714687145 -0.0046692698120727426 0.0067428298545145898 0.0058991690878961714 -0.0061347670209596344 0.0044893973571216239 0.0019432990765962444 -0.011292425384158856 -0.0064202761485673198 -0.0044099436587882491 -0.0061361757523201886 -0.0058797424826128736 0.0048671200415587321 0.0074886046050325677
leaf_count=4065 502 2303 1083 2379 161 696 148 237 266 500 513 899 1893 428 156 334 781 773 13945 411 696 488 143 5728 530 470 145 1095 2884
internal_value=0 0.0653911 -0.055704 -0.00531691 0.0271396 0.0889552 0.101273 0.075669 -0.0271656 -0.0943882 0.0977665 0.11632 0.107432 -0.0524708 -0.0675321 -0.0968157 -0.011365 0.0419721 0.110002 -0.0132098 0.0244145 -0.0943671 -0.0211248 -0.10523 -0.0841745 -0.00664588 0.024177 0.0722086 0.127896
internal_count=44652 20540 24112 10472 8093 18237 16488 5028 1749 13640 4457 3944 15986 3065 1483 571 1982 1201 15838 1607 1196 1327 631 12033 6305 2240 1770 1240 3783
shrinkage=0.05


Tree=30
num_leaves=30
num_cat=0
split_feature=11 31 9 31 28 13 6 6 17 31 31 24 24 24 24 6 10 24 24 24 24 6 21 13 28 21 27 31 11
split_gain=148.823 119.108 50.6746 26.044 17.2387 35.2172 16.8308 12.0296 14.0456 14.5714 16.8257 11.9445 14.3019 10.5117 14.2149 9.53904 10.0667 8.46648 10.368 7.39282 8.77754 6.77963 6.76941 8.72127 5.85148 5.7923 5.61234 6.76019 4.51673
threshold=4.5000000000000009 0.58889586126142823 2.386924603485824 0.39119144174886394 4.1361194028102934 17.347264057203287 0.61312901973724376 0.45620299875736242 1.016771206779864 0.59117827457093475 0.41844698173248557 1.024402747174731 1.0124382041438638 1.0065105124188165 1.023220472687177 0.2908195853233338 27.485964675561586 1.0355961764930173 1.0144088693299655 1.0277232580645137 1.0149375308715285 0.20805010944604876 3.5100846660496114 28.496013520755962 5.0757585395363094 1.9871167318054652 0.99987107959238097 0.50948990547493811 11.500000000000002
decision_type=2 2 2 2 2 2 2 2 2 2 2 2 2 2 2 2 2 2 2 2 2 2 2 2 2 2 2 2 2
left_child=1 2 6 11 15 -6 26 -2 -9 10 -10 12 -4 -12 24 16 19 18 -8 20 -5 -14 -7 -24 -15 -20 -1 -28 -16
right_child=7 -3 3 4 5 22 17 8 9 -11 13 -13 21 14 28 -17 -18 -19 25 -21 -22 -23 23 -25 -26 -27 27 -29 -30
leaf_value=-0.0069746851340013738 -0.0057217982401497258 -0.0053542279970146042 -0.0095643406496806593 -0.0062843054560909554 -0.020552885019388359 0.0035218549916407101 -0.0041899579406906202 -0.0053237363354372734 -0.0053959192470887166 -0.0055883994140706146 -0.0072526150806383654 -0.0075824815265658737 -0.0061192593545512826 0.0084042495981222869 0.0023640152445789115 0.0057533441235769929 0.0055430492407430839 -0.0063914863075371147 0.0061126889098617439 -0.006799653540587142 0.0040823574602809921 0.0072754131875828743 -0.024086595611537205 -9.0056143346286968e-05 -0.0094027368351817138 -0.0084852213557395674 -0.005074904324826642 0.0025365817643686413 -0.0060286246939425586
leaf_count=1154 7008 4710 220 267 183 1623 372 3096 738 1146 209 594 113 1187 354 15087 1493 270 1209 336 868 576 51 147 48 72 751 477 293
internal_value=0 0.039177 0.0658132 0.0855938 0.095109 0.00711715 -0.0332411 -0.0850742 -0.055974 -0.0166405 0.0218947 -0.0413704 0.0306932 0.0677111 0.0913389 0.104878 0.0530139 0.0363488 0.0631656 -0.00569826 0.0328736 0.101572 0.0491413 -0.12542 0.154243 0.105844 -0.0894214 -0.0423665 -0.0287334
internal_count=44652 30573 25863 21558 20055 2004 4305 14079 7071 3975 2829 1503 909 2091 1882 18051 2964 1923 1653 1471 1135 689 1821 198 1235 1281 2382 1228 647
shrinkage=0.05


Tree=31
num_leaves=30
num_cat=0
split_feature=11 6 31 31 31 11 17 17 28 13 0 0 21 27 28 21 5 31 31 31 10 9 28 10 28 31 1 28 31
split_gain=135.166 57.8552 55.9938 42.0948 35.8723 20.1617 13.9324 12.3403 10.843 18.9375 9.60547 8.33689 7.67793 7.25382 7.18116 6.22292 8.3986 5.72741 5.56044 6.74274 5.36721 5.7495 4.85024 4.75101 4.48351 5.09518 4.46777 4.15177 4.02645
threshold=1.5000000000000002 0.55502074956893932 0.59823229454678239 0.59117827457093475 0.41236333819906695 11.500000000000002 3.033375463668095 1.0525930015788936 2.6855720513395598 15.316528764658555 18.071161016137122 8.2523423143738288 1.0391322432999708 0.99992004254084854 2.5924833330097132 2.5009688704076702 3.4310879289972962 0.46445010574436607 0.59493289641350589 0.36393613396830987 11.446410077142376 3.2441368872341454 4.491270911705203 14.0805985423653 1.109461453390262 0.58889586126142823 15.899973188443617 1.0869642586868107 0.31591510785259264
decision_type=2 2 2 2 2 2 2 2 2 2 2 2 2 2 2 2 2 2 2 2 2 2 2 2 2 2 2 2 2
left_child=2 6 7 4 23 8 10 17 11 12 27 -6 -10 -12 18 28 -17 -1 19 -15 -7 -22 -23 -3 -8 -26 -21 -2 -9
right_child=1 3 -4 -5 5 20 24 15 9 -11 13 -13 -14 14 -16 16 -18 -19 -20 26 21 22 -24 -25 25 -27 -28 -29 -30
leaf_value=-0.00404446692629294 -0.0076263214766040151 -0.0067444411559638541 -0.0054739475210401466 -0.0052599578341280531 0.00031000129392838181 -0.0062411481087651039 -0.0093592503051064448 -0.010417263507843019 -0.0018734219662769878 0.0033305203783410516 -0.0049309089480642889 0.0060876240331322173 -0.015851206011497056 -0.007667091110202133 -0.0039579850760540448 -0.0087032238313475181 0.004448763484784294 0.002586277251077049 -0.0054155237679542221 0.005580452692351843 -0.002728159448357441 0.011010397106041145 -0.011192614636544524 -0.0019092869445008075 0.0032842138525426695 -0.0054663763191569502 -0.011106260936884653 -0.0049128927206600259 0.0054722499734312056
leaf_count=495 1682 974 1496 2666 721 589 98 40 198 1760 1631 4659 195 122 891 185 353 952 216 893 446 162 29 1062 965 201 42 8709 12220
internal_value=0 -0.0405974 0.074564 0.00732791 0.0351183 0.0629109 -0.082353 0.0938921 0.0822661 0.0222926 -0.0913168 0.106267 -0.176179 -0.0482589 -0.0103033 0.103789 -0.0014752 0.00635971 0.0378907 0.0677672 -0.0560146 0.00760877 0.152785 -0.0844474 0.0182487 0.035515 0.0966178 -0.107042 0.108408
internal_count=44652 28911 15741 13461 10795 8759 15450 14245 7533 2153 14186 5380 393 3795 2164 12798 538 1447 1273 1057 1226 637 191 2036 1264 1166 935 10391 12260
shrinkage=0.05


Tree=32
num_leaves=30
num_cat=0
split_feature=11 31 24 24 6 6 17 6 5 28 31 11 24 31 5 24 24 24 21 13 31 21 31 11 24 24 31 31 21
split_gain=122.149 97.5576 43.8961 44.5936 18.5898 12.9656 11.119 10.5382 9.15567 8.51519 7.99275 7.7779 7.44919 7.3718 7.21246 6.45488 7.96916 6.23113 6.33357 7.60059 5.9532 5.91791 5.65416 5.61664 6.69185 20.6123 9.28133 7.11186 6.3209
threshold=4.5000000000000009 0.59493289641350589 1.0269646938556674 1.0134181227354915 0.48874565958976751 0.70486849546432506 1.6388305549334419 0.89744350314140331 4.1327910879898466 2.4899478369720716 0.47423161910147493 1.5000000000000002 0.99901610801786267 0.32559608209903051 4.9391357589528484 1.0249286882723425 1.0077948491964117 1.0228582854028125 1.9407596491190451 14.612317577482349 0.44931335553095342 3.297694342604423 0.60231918618353153 15.500000000000002 1.02376933581657 1.0169633083575638 0.60231918618353153 0.36393613396830987 0.72747645022271457
decision_type=2 2 2 2 2 2 2 2 2 2 2 2 2 2 2 2 2 2 2 2 2 2 2 2 2 2 2 2 2
left_child=1 2 3 5 11 8 9 14 -1 10 -6 -4 -7 -5 23 16 -9 -15 -19 -20 -14 -8 -18 24 25 -2 27 -27 -29
right_child=7 -3 4 13 6 12 21 15 -10 -11 -12 -13 20 17 -16 -17 22 18 19 -21 -22 -23 -24 -25 -26 26 -28 28 -30
leaf_value=-0.0054448796608718803 -0.0049481518179527485 -0.0050310701368175923 -0.0011483412182041383 -0.0071699206525134666 -0.0040634880711634949 -0.0075443884680668517 0.0054231126473064627 -0.0059939761166867703 0.0042556146973035704 -0.0067736633107213689 0.00592214940610317 -0.0070294064842025827 -0.0027390766854679914 0.0053561425905846519 0.0026691065296987307 -0.004288483813866195 0.0069353923153647277 0.0035689393449900944 -0.025180599093437197 -0.0011137755960226061 0.0067246730939001485 -0.013651061341876075 -0.0058192229986485872 -0.0058236176640289808 -0.0052941089003028987 -0.0069876929729425609 -0.0054108097919658444 -0.0033006804218147973 0.0076053199858439188
leaf_count=1695 2560 4492 967 126 360 150 1279 206 284 505 452 1343 218 15285 359 517 622 2398 38 240 699 42 101 4942 3340 119 292 157 864
internal_value=0 0.0354929 0.0589362 0.0787874 -0.0258483 -0.0331498 0.0315093 -0.077074 -0.0810559 -0.0335117 0.0299004 -0.0913501 0.0557033 0.0976385 -0.0863301 0.00379208 0.0536343 0.0993294 0.0548143 -0.0880697 0.0894968 0.0963333 0.103073 -0.0904165 -0.072854 -0.0452203 0.0508561 0.091601 0.118566
internal_count=44652 30573 26081 21133 4948 3046 2638 14079 1979 1317 812 2310 1067 18087 12633 1446 929 17961 2676 278 917 1321 723 12274 7332 3992 1432 1140 1021
shrinkage=0.05


Tree=33
num_leaves=30
num_cat=0
split_feature=11 24 24 31 31 31 11 21 9 24 9 6 9 24 6 31 28 4 6 24 10 6 6 9 31 28 4 31 24
split_gain=111.82 48.5273 86.7102 45.9895 37.0687 18.5068 13.028 10.4518 9.99427 8.32103 7.63809 6.12507 5.9364 5.51408 5.40995 5.0885 4.97615 8.69362 4.59862 4.33963 4.26621 4.20565 4.12128 3.81573 3.79322 3.67133 8.01575 3.90172 3.65909
threshold=1.5000000000000002 1.0245598508484004 1.0142286996780592 0.59823229454678239 0.60231918618353153 0.35756265761764955 19.500000000000004 0.74374431003173613 2.0897713651473757 1.0533275176700609 2.4274929070001705 0.1941730007529259 9.432867117452199 1.0228582854028125 0.95277002453804027 0.43674211359671761 5.1844662778248818 34.621019668831444 0.89434757828712474 1.0081983587605994 14.873097116254483 0.22461301088333133 0.38938361406326299 8.2416693556957519 0.32083918489287683 2.5193788399512305 20.34333161200502 0.50948990547493811 1.0341394806019071
decision_type=2 2 2 2 2 2 2 2 2 2 2 2 2 2 2 2 2 2 2 2 2 2 2 2 2 2 2 2 2
left_child=3 2 14 8 5 -4 7 10 22 12 20 15 18 25 23 -10 24 -18 -3 -16 -7 -12 -1 -2 -13 -9 27 -27 -20
right_child=1 9 4 -5 -6 6 -8 13 11 -11 21 16 -14 -15 19 -17 17 -19 28 -21 -22 -23 -24 -25 -26 26 -28 -29 -30
leaf_value=-0.00594800314173154 -0.0051382418250719821 -0.0051917946331465244 -0.0059208104034533379 -0.0049486967246919721 -0.0052597970898630381 -0.011216532737016678 -0.0035180012116753576 0.0066931408545245902 -0.0052051857834367601 0.006864406731911004 -0.0078309192815247709 -0.0069924359850119799 0.0016557519109203266 0.0010757558341144985 -0.0038526494676868121 0.0028253441207281506 -0.017619674078753738 0.0025083326791109665 0.001330755323755975 0.0073734173562490582 -0.0003119164936082519 0.0037738505218154702 0.0015415932125751935 0.0012706340116707617 0.0052137476986751563 -0.0018576796318209448 0.0049281839412032517 -0.020449810998425598 -0.0045209804871874917
leaf_count=289 6396 9432 481 1496 1334 175 523 4252 243 160 85 64 364 673 180 1048 61 445 510 165 184 958 504 241 11591 86 2109 42 561
internal_value=0 -0.0369252 -0.00475474 0.0678194 0.0509689 0.0727419 0.0828604 0.0922175 0.085336 -0.0891006 0.0132587 0.0917671 -0.0924338 0.107674 -0.0917641 0.0262758 0.0987196 0.00163668 -0.0967849 0.0303268 -0.112551 0.0565622 -0.0237581 -0.0981105 0.102934 0.11661 0.0838166 -0.159164 -0.0346888
internal_count=44652 28911 17884 15741 10902 9568 9087 8564 14245 11027 1402 13452 10867 7162 6982 1291 12161 506 10503 345 359 1043 793 6637 11655 6489 2237 128 1071
shrinkage=0.05


Tree=34
num_leaves=30
num_cat=0
split_feature=9 10 24 28 24 6 24 11 6 13 11 24 24 9 28 13 11 28 6 28 6 24 24 21 11 27 17 10 9
split_gain=101.262 32.258 27.989 21.8353 20.5202 17.377 11.429 9.18148 8.23563 7.32867 7.18921 6.90022 7.18447 5.69523 5.62168 5.96925 5.52484 5.13301 4.8189 4.83034 4.69984 4.5205 5.32193 4.34291 4.30714 4.26919 4.18901 4.18867 4.06952
threshold=3.8038510622023867 18.447755239419902 1.0320881387558687 2.5355819333605738 1.0111843104774385 0.45620299875736242 1.0533275176700609 13.500000000000002 0.88769337534904491 15.52002658121887 1.5000000000000002 1.0348642110985828 1.0065105124188165 2.2800492887222847 5.3098409116650034 23.605936316382827 1.5000000000000002 4.7836727377825907 0.23896203190088275 1.1995061807190961 0.75911298394203197 1.0304749323992597 1.0134181227354915 1.5570604291023999 2.5000000000000004 0.99993364723621092 3.4949764931173726 10.963426237820785 2.4274929070001705
decision_type=2 2 2 2 2 2 2 2 2 2 2 2 2 2 2 2 2 2 2 2 2 2 2 2 2 2 2 2 2
left_child=1 8 4 5 16 13 10 14 28 23 26 12 -7 -3 18 -16 -2 24 19 -6 -18 22 -15 -5 25 -11 -4 -10 -1
right_child=2 3 6 9 7 11 -8 -9 27 17 -12 -13 -14 21 15 -17 20 -19 -20 -21 -22 -23 -24 -25 -26 -27 -28 -29 -30
leaf_value=-0.0049384723715734449 0.0017756795709454173 -0.0039560602948069575 -0.0015812244335472033 -0.0037138352484666517 -0.0049615436956085973 -0.0026935621640618696 0.0087604183011350378 -0.0034834440586007675 -0.0028534102450649937 -0.0027497315779328349 -0.0049493360876037588 -0.0017646777978133873 0.0051686391171547903 -0.0039029128776461469 -0.010467136664013579 0.001839905961130101 -0.006200483925787828 -0.0067552546434969801 0.0047023525480463894 0.0029094614119820048 0.0017890497306246819 -0.0040789269305684652 0.0044138087014433374 -0.0090933101090752057 -0.0031792227410410764 0.0036118682991545161 0.0058840525122183674 0.0024225014306965375 -0.0031036935776540368
leaf_count=7144 609 1250 646 1109 223 319 226 405 761 384 1640 507 3260 255 117 624 759 353 12707 1548 243 368 783 567 756 842 265 744 5238
internal_value=0 -0.0429169 0.0528419 -0.00179834 0.0678536 0.032959 -0.0403259 0.0789335 -0.0747558 -0.0602211 -0.0594207 0.0738905 0.0893575 -0.0300102 0.0828881 -0.00206623 -0.0396032 -0.0240069 0.0872361 0.0383673 -0.085258 0.0136518 0.0474137 -0.110675 -0.00421994 0.0323866 0.0118069 -0.00490504 -0.083246
internal_count=44652 24640 20012 10753 17235 6742 2777 15624 13887 4011 2551 4086 3579 2656 15219 741 1611 2335 14478 1771 1002 1406 1038 1676 1982 1226 911 1505 12382
shrinkage=0.05


Tree=35
num_leaves=30
num_cat=0
split_feature=11 24 24 31 31 31 21 17 17 24 5 31 31 24 24 11 17 31 0 21 4 21 13 31 31 24 31 28 21
split_gain=93.0519 41.5346 80.3268 39.4436 27.2623 12.5158 9.71703 9.29594 7.8357 6.8767 7.23422 6.05546 8.33509 5.92588 5.92422 5.6947 5.68811 5.21534 5.20595 5.00178 7.85502 4.24776 5.81977 4.06905 4.3449 3.85048 6.90015 4.34472 4.76134
threshold=1.5000000000000002 1.0233561914088876 1.0156858876694259 0.59823229454678239 0.60231918618353153 0.34661814923506246 0.74374431003173613 0.88017152063387472 2.9635559950205335 1.0081983587605994 1.426306746734751 0.58416002481948581 0.48578356010348361 0.99974666497842879 1.0597994916366156 41.500000000000007 0.90893257778970415 0.4813281869743683 10.260158688978061 2.450236447409512 29.772679899174033 2.1759291192391257 16.577826543144564 0.39119144174886394 0.58557932980910354 1.0341394806019071 0.57385326931282388 3.576643088159901 0.90336137088406976
decision_type=2 2 2 2 2 2 2 2 2 2 2 2 2 2 2 2 2 2 2 2 2 2 2 2 2 2 2 2 2
left_child=3 2 9 7 5 -4 16 -1 14 -2 -11 12 18 -9 17 21 -7 -3 -12 -15 -21 -8 -23 -10 -25 26 27 28 -19
right_child=1 8 4 -5 -6 6 15 13 23 10 11 -13 -14 19 -16 -17 -18 25 -20 20 -22 22 -24 24 -26 -27 -28 -29 -30
leaf_value=-0.0015021805981715838 -0.0050658010455310589 -0.005837403199020352 -0.006072360425684098 -0.0046300395431724149 -0.0048599148238575238 -0.0067650902436839216 0.005767928656660694 -0.005451095585895193 -0.0094274523985254897 -0.0046214570494118546 -0.0096780341098545719 -0.0049410216356425181 0.0051124347964320912 0.0045286098539999977 0.011754335900932028 -0.0056087247033913927 0.0019689424907601855 -0.0022810430816995598 0.00037354542240322636 -0.015410981886088849 0.0020040343411295569 -0.015504683678348861 0.0027500738684805284 0.0037739844482527311 -0.0050355102437046858 -0.0046109427528668789 -0.0043401598705385767 -0.007456825261837558 0.0042210992770310542
leaf_count=753 4538 4023 296 1496 966 225 5928 157 91 1534 186 460 776 12743 57 120 1087 480 419 74 518 48 483 606 182 3884 1689 152 681
internal_value=0 -0.0336842 -0.00210693 0.0618668 0.0616832 0.0804299 0.0880025 0.0780889 -0.0791801 -0.0758932 -0.0417098 0.000551664 0.0336517 0.0841238 -0.0864619 0.103673 0.00942218 -0.088142 -0.0543338 0.0863978 -0.00345685 0.107683 0.0219985 0.0116649 0.0347861 -0.0714296 -0.0445323 0.00984357 0.0306575
internal_count=44652 28911 17066 15741 9153 8187 7891 14245 11845 7913 3375 1841 1381 13492 10966 6579 1312 10909 605 13335 592 6459 531 879 788 6886 3002 1313 1161
shrinkage=0.05


Tree=36
num_leaves=30
num_cat=0
split_feature=11 24 24 31 31 31 21 17 17 24 9 10 31 11 24 24 31 31 9 28 31 31 28 31 9 27 24 24 31
split_gain=83.9793 37.5032 73.4369 35.5978 24.5551 11.0286 9.00479 8.38959 7.25021 6.27187 6.30888 5.78165 5.87171 5.3688 5.34811 5.33878 5.24783 4.7636 4.67309 4.64374 4.10237 3.89379 3.89267 3.81317 3.77955 3.62561 4.86379 3.52252 6.55656
threshold=1.5000000000000002 1.023220472687177 1.0156858876694259 0.59823229454678239 0.60231918618353153 0.34661814923506246 0.74374431003173613 0.88017152063387472 2.9635559950205335 1.0050787492601108 2.4794599707918197 11.944115711643915 0.58889586126142823 41.500000000000007 0.99974666497842879 1.0597994916366156 0.38905097949857775 0.4813281869743683 2.4274929070001705 8.0720359659459096 0.32083918489287683 0.38419040522242925 4.8679514673235564 0.58557932980910354 9.2710788936401496 0.99993210722546977 1.0338183309642466 1.0341394806019071 0.57385326931282388
decision_type=2 2 2 2 2 2 2 2 2 2 2 2 2 2 2 2 2 2 2 2 2 2 2 2 2 2 2 2 2
left_child=3 2 9 7 5 -4 18 -1 15 -2 -11 -12 16 -8 -9 17 -13 -3 -7 20 -16 -10 -18 -23 -21 26 -22 28 -19
right_child=1 8 4 -5 -6 6 13 14 21 10 11 12 -14 -15 19 -17 22 27 -20 24 25 23 -24 -25 -26 -27 -28 -29 -30
leaf_value=-0.0014270715667788253 -0.0051638778621937763 -0.0055378725437272248 -0.0056904802599857598 -0.0043985375873047241 -0.0046176494164951731 -0.0046773460187443027 0.0051912672835191217 -0.0051785409094611554 -0.0098255195359631294 -0.004373215700644831 -0.0042844502550239373 -0.0066810674005837152 -0.0044524239371111999 -0.0055718872980293583 -0.0072579638220560865 0.011166619091180333 0.0046361316625282934 0.00048794800447298707 0.0021985654472247047 -0.021633547183967407 0.0035985814924015831 0.0034197506956837737 -0.0074640508898547002 -0.0047837347099250497 0.00095434848867032842 0.0048190410451715605 -0.0021089309425099999 -0.0043803956070924462 -0.0041704292710848722
leaf_count=753 3554 4051 290 1496 949 333 6392 157 82 2028 720 132 367 118 78 57 1041 1353 958 31 3880 639 71 182 46 8887 413 3884 1710
internal_value=0 -0.032 -0.0017512 0.0587734 0.0598261 0.0776753 0.0847937 0.0741844 -0.0748841 -0.0720985 -0.0466775 -0.0111924 0.0221021 0.0999235 0.0799176 -0.0819215 0.0548933 -0.0835036 0.00849991 0.0820779 0.0835001 0.0112711 0.077271 0.0320239 -0.16279 0.0848533 0.06099 -0.067611 -0.0422543
internal_count=44652 28911 16953 15741 9040 8091 7801 14245 11958 7913 4359 2331 1611 6510 13492 11055 1244 10998 1291 13335 13258 903 1112 821 77 13180 4293 6947 3063
shrinkage=0.05


Tree=37
num_leaves=30
num_cat=0
split_feature=11 6 11 24 24 17 0 24 28 24 24 24 24 24 28 9 28 13 6 24 9 28 13 28 14 9 9 6 24
split_gain=75.7913 37.5608 20.1147 12.15 13.8824 11.8487 10.7467 8.60522 8.54654 7.88189 13.1426 7.24895 6.10609 5.52979 5.41484 5.12997 5.02813 5.67214 4.39799 4.30028 4.28243 5.07922 4.18343 4.00539 3.86436 3.65299 3.63795 3.40228 3.59475
threshold=1.5000000000000002 0.61312901973724376 9.5000000000000018 1.0311066625221823 1.0142286996780592 1.6388305549334419 18.249905655417198 1.0513352817721573 3.2726798501259315 1.0245598508484004 1.0121551768138539 1.0304749323992597 1.015244069119299 1.0227521685365808 1.1199645696082718 8.7238182072799173 5.8138326803210232 23.817838659927521 0.45620299875736242 1.0513352817721573 2.6737319434798961 2.716382920891578 20.182761585998886 2.2341611869035853 0.99755505135991862 4.24588663342701 2.1355875721447699 0.28709164261817938 1.0288096736233958
decision_type=2 2 2 2 2 2 2 2 2 2 2 2 2 2 2 2 2 2 2 2 2 2 2 2 2 2 2 2 2
left_child=5 6 3 4 20 8 14 -5 11 10 -8 12 18 -6 -2 27 -7 -18 -1 -13 -3 -22 -10 -15 -4 -25 -12 -16 -29
right_child=1 2 24 7 13 16 9 -9 22 -11 26 19 -14 23 15 -17 17 -19 -20 -21 21 -23 -24 25 -26 -27 -28 28 -30
leaf_value=-0.004926742744681082 -0.0061348449989973783 -0.0041374886734351652 0.0041018664729834979 -0.0029891644073928871 0.0046173179521739735 0.0039037957301407927 -0.0044275051234649743 0.012137780226767064 -0.0066633838127379665 -0.0037149183982766649 -0.0018257873939801954 -0.0035583962297076905 0.0040456822199579105 0.0035815744408911375 -0.0045657555271881164 0.0019171516547042333 -0.011844558674184715 0.0015333170097478678 0.0025938742293335087 0.010683423215359972 0.0042139686327992065 -0.0038689769175834958 0.0011069322889490937 -0.0049285708360143551 -0.0035971112204986871 0.0025964578802602882 0.0036503118706486468 -0.0017196403787395091 -0.0044743972979343722
leaf_count=380 2075 783 174 1571 4467 10614 932 100 523 1720 367 756 2297 721 4576 445 102 355 398 57 495 320 259 388 2575 276 1747 3346 1833
internal_value=0 -0.0304 0.0127875 0.0353869 0.0526722 0.0558348 -0.0604825 -0.041678 0.0135918 -0.0201807 0.0103782 0.0327775 0.0549797 0.0752297 -0.0761304 -0.0666574 0.0736538 -0.0290511 -0.0215887 -0.0511978 -0.0299351 0.0208059 -0.0817968 0.0200239 -0.062196 -0.0360139 0.0539927 -0.0714472 -0.0538926
internal_count=44652 28911 11870 9121 7450 15741 17041 1671 4670 4766 3046 3888 3075 5852 12275 10200 11071 457 778 813 1598 815 782 1385 2749 664 2114 9755 5179
shrinkage=0.05


Tree=38
num_leaves=30
num_cat=0
split_feature=0 31 17 17 28 13 6 0 31 31 31 27 6 21 31 17 31 31 21 31 24 24 17 24 24 3 21 28 13
split_gain=68.9418 45.5574 23.0422 20.1727 16.0569 21.9693 13.7157 8.11983 8.10557 9.24714 7.44945 6.75817 6.18902 6.05729 5.92323 5.77637 5.49415 5.25334 4.70004 4.3184 8.08908 13.4395 5.75618 4.03875 6.59267 4.02558 6.75563 4.35155 4.16995
threshold=16.34091805590112 0.59823229454678239 2.4029252123477036 0.9679667733720112 4.1361194028102934 17.347264057203287 0.77476522326469432 10.708684326718318 0.59823229454678239 0.45208460518193522 0.35000645991606577 0.99989939015015061 0.40623033046722418 1.8053728692095712 0.49500937130267481 2.505209315646471 0.58889586126142823 0.4813281869743683 2.1759291192391257 0.57848357766512737 1.0252756385708073 1.0121551768138539 0.80153700538036621 1.0233561914088876 1.0142286996780592 24.880957248680492 2.2368022928671691 1.4514720989304573 13.827401678351846
decision_type=2 2 2 2 2 2 2 2 2 2 2 2 2 2 2 2 2 2 2 2 2 2 2 2 2 2 2 2 2
left_child=2 3 6 11 10 -6 17 23 9 12 -5 -2 -4 14 -13 18 -9 -1 -7 20 21 -19 -23 24 -8 26 -12 -27 -28
right_child=1 -3 8 4 5 15 7 16 -10 -11 25 13 -14 -15 -16 -17 -18 19 -20 -21 -22 22 -24 -25 -26 27 28 -29 -30
